<?xml version="1.0"?>
<opencv_storage>
<my_svm type_id="opencv-ml-svm">
  <svm_type>C_SVC</svm_type>
  <kernel><type>RBF</type>
    <gamma>1.</gamma></kernel>
  <C>1.0000000000000001e-005</C>
  <term_criteria><epsilon>1.1920928955078125e-007</epsilon>
    <iterations>1000</iterations></term_criteria>
  <var_all>39</var_all>
  <var_count>39</var_count>
  <class_count>39</class_count>
  <class_labels type_id="opencv-matrix">
    <rows>1</rows>
    <cols>39</cols>
    <dt>i</dt>
    <data>
      1 2 3 4 5 6 7 8 9 10 11 12 13 14 15 16 17 18 19 20 21 22 23 24 25
      26 27 28 29 30 31 32 33 34 35 36 37 38 39</data></class_labels>
  <sv_total>156</sv_total>
  <support_vectors>
    <_>
      1.12903222e-001 9.67741907e-002 1.61290318e-002 1.61290318e-002
      6.45161271e-002 1.12903222e-001 8.06451589e-002 3.22580636e-002
      3.22580636e-002 0. 1.61290318e-002 6.45161271e-002 0. 0.
      1.61290318e-002 0. 4.83870953e-002 0. 0. 3.22580636e-002 0. 0. 0.
      1.61290318e-002 0. 0. 0. 0. 1.61290318e-002 0. 0. 0. 0. 0. 0.
      1.61290318e-002 1.12903222e-001 1.61290318e-002 8.06451589e-002</_>
    <_>
      1.12903222e-001 9.67741907e-002 1.61290318e-002 1.61290318e-002
      6.45161271e-002 1.12903222e-001 8.06451589e-002 3.22580636e-002
      3.22580636e-002 0. 1.61290318e-002 6.45161271e-002 0. 0.
      1.61290318e-002 0. 4.83870953e-002 0. 0. 3.22580636e-002 0. 0. 0.
      1.61290318e-002 0. 0. 0. 0. 1.61290318e-002 0. 0. 0. 0. 0. 0.
      1.61290318e-002 1.12903222e-001 1.61290318e-002 8.06451589e-002</_>
    <_>
      1.12903222e-001 9.67741907e-002 1.61290318e-002 1.61290318e-002
      6.45161271e-002 1.12903222e-001 8.06451589e-002 3.22580636e-002
      3.22580636e-002 0. 1.61290318e-002 6.45161271e-002 0. 0.
      1.61290318e-002 0. 4.83870953e-002 0. 0. 3.22580636e-002 0. 0. 0.
      1.61290318e-002 0. 0. 0. 0. 1.61290318e-002 0. 0. 0. 0. 0. 0.
      1.61290318e-002 1.12903222e-001 1.61290318e-002 8.06451589e-002</_>
    <_>
      1.12903222e-001 9.67741907e-002 1.61290318e-002 1.61290318e-002
      6.45161271e-002 1.12903222e-001 8.06451589e-002 3.22580636e-002
      3.22580636e-002 0. 1.61290318e-002 6.45161271e-002 0. 0.
      1.61290318e-002 0. 4.83870953e-002 0. 0. 3.22580636e-002 0. 0. 0.
      1.61290318e-002 0. 0. 0. 0. 1.61290318e-002 0. 0. 0. 0. 0. 0.
      1.61290318e-002 1.12903222e-001 1.61290318e-002 8.06451589e-002</_>
    <_>
      2.11800300e-002 2.87443250e-002 1.21028740e-002 3.17700431e-002
      1.36157330e-002 4.08472009e-002 3.32829021e-002 3.47957611e-002
      1.81543119e-002 1.51285925e-003 2.57186070e-002 2.11800300e-002
      3.93343419e-002 5.14372140e-002 2.57186070e-002 2.57186070e-002
      3.17700431e-002 4.23600599e-002 4.23600599e-002 3.32829021e-002
      3.47957611e-002 2.26928890e-002 6.95915222e-002 9.07715596e-003
      2.11800300e-002 9.07715596e-003 3.02571841e-002 2.11800300e-002
      2.72314660e-002 2.72314660e-002 1.81543119e-002 6.05143700e-003
      1.21028740e-002 3.02571850e-003 7.56429601e-003 4.53857780e-002
      2.72314660e-002 1.36157330e-002 1.96671709e-002</_>
    <_>
      2.11800300e-002 2.87443250e-002 1.21028740e-002 3.17700431e-002
      1.36157330e-002 4.08472009e-002 3.32829021e-002 3.47957611e-002
      1.81543119e-002 1.51285925e-003 2.57186070e-002 2.11800300e-002
      3.93343419e-002 5.14372140e-002 2.57186070e-002 2.57186070e-002
      3.17700431e-002 4.23600599e-002 4.23600599e-002 3.32829021e-002
      3.47957611e-002 2.26928890e-002 6.95915222e-002 9.07715596e-003
      2.11800300e-002 9.07715596e-003 3.02571841e-002 2.11800300e-002
      2.72314660e-002 2.72314660e-002 1.81543119e-002 6.05143700e-003
      1.21028740e-002 3.02571850e-003 7.56429601e-003 4.53857780e-002
      2.72314660e-002 1.36157330e-002 1.96671709e-002</_>
    <_>
      2.11800300e-002 2.87443250e-002 1.21028740e-002 3.17700431e-002
      1.36157330e-002 4.08472009e-002 3.32829021e-002 3.47957611e-002
      1.81543119e-002 1.51285925e-003 2.57186070e-002 2.11800300e-002
      3.93343419e-002 5.14372140e-002 2.57186070e-002 2.57186070e-002
      3.17700431e-002 4.23600599e-002 4.23600599e-002 3.32829021e-002
      3.47957611e-002 2.26928890e-002 6.95915222e-002 9.07715596e-003
      2.11800300e-002 9.07715596e-003 3.02571841e-002 2.11800300e-002
      2.72314660e-002 2.72314660e-002 1.81543119e-002 6.05143700e-003
      1.21028740e-002 3.02571850e-003 7.56429601e-003 4.53857780e-002
      2.72314660e-002 1.36157330e-002 1.96671709e-002</_>
    <_>
      2.11800300e-002 2.87443250e-002 1.21028740e-002 3.17700431e-002
      1.36157330e-002 4.08472009e-002 3.32829021e-002 3.47957611e-002
      1.81543119e-002 1.51285925e-003 2.57186070e-002 2.11800300e-002
      3.93343419e-002 5.14372140e-002 2.57186070e-002 2.57186070e-002
      3.17700431e-002 4.23600599e-002 4.23600599e-002 3.32829021e-002
      3.47957611e-002 2.26928890e-002 6.95915222e-002 9.07715596e-003
      2.11800300e-002 9.07715596e-003 3.02571841e-002 2.11800300e-002
      2.72314660e-002 2.72314660e-002 1.81543119e-002 6.05143700e-003
      1.21028740e-002 3.02571850e-003 7.56429601e-003 4.53857780e-002
      2.72314660e-002 1.36157330e-002 1.96671709e-002</_>
    <_>
      4.12371121e-002 5.15463902e-003 0. 5.15463902e-003 1.54639166e-002
      1.54639166e-002 4.12371121e-002 3.60824727e-002 1.03092780e-002
      5.15463902e-003 5.15463911e-002 2.57731955e-002 2.57731955e-002
      5.15463902e-003 2.06185561e-002 2.06185561e-002 1.54639166e-002
      2.06185561e-002 6.70103058e-002 3.09278332e-002 5.15463902e-003
      5.15463911e-002 5.15463911e-002 2.06185561e-002 3.60824727e-002 0.
      2.57731955e-002 2.57731955e-002 5.67010306e-002 7.21649453e-002
      1.03092780e-002 5.15463902e-003 5.15463902e-003 0. 5.15463902e-003
      7.21649453e-002 4.12371121e-002 0. 5.67010306e-002</_>
    <_>
      4.12371121e-002 5.15463902e-003 0. 5.15463902e-003 1.54639166e-002
      1.54639166e-002 4.12371121e-002 3.60824727e-002 1.03092780e-002
      5.15463902e-003 5.15463911e-002 2.57731955e-002 2.57731955e-002
      5.15463902e-003 2.06185561e-002 2.06185561e-002 1.54639166e-002
      2.06185561e-002 6.70103058e-002 3.09278332e-002 5.15463902e-003
      5.15463911e-002 5.15463911e-002 2.06185561e-002 3.60824727e-002 0.
      2.57731955e-002 2.57731955e-002 5.67010306e-002 7.21649453e-002
      1.03092780e-002 5.15463902e-003 5.15463902e-003 0. 5.15463902e-003
      7.21649453e-002 4.12371121e-002 0. 5.67010306e-002</_>
    <_>
      4.12371121e-002 5.15463902e-003 0. 5.15463902e-003 1.54639166e-002
      1.54639166e-002 4.12371121e-002 3.60824727e-002 1.03092780e-002
      5.15463902e-003 5.15463911e-002 2.57731955e-002 2.57731955e-002
      5.15463902e-003 2.06185561e-002 2.06185561e-002 1.54639166e-002
      2.06185561e-002 6.70103058e-002 3.09278332e-002 5.15463902e-003
      5.15463911e-002 5.15463911e-002 2.06185561e-002 3.60824727e-002 0.
      2.57731955e-002 2.57731955e-002 5.67010306e-002 7.21649453e-002
      1.03092780e-002 5.15463902e-003 5.15463902e-003 0. 5.15463902e-003
      7.21649453e-002 4.12371121e-002 0. 5.67010306e-002</_>
    <_>
      4.12371121e-002 5.15463902e-003 0. 5.15463902e-003 1.54639166e-002
      1.54639166e-002 4.12371121e-002 3.60824727e-002 1.03092780e-002
      5.15463902e-003 5.15463911e-002 2.57731955e-002 2.57731955e-002
      5.15463902e-003 2.06185561e-002 2.06185561e-002 1.54639166e-002
      2.06185561e-002 6.70103058e-002 3.09278332e-002 5.15463902e-003
      5.15463911e-002 5.15463911e-002 2.06185561e-002 3.60824727e-002 0.
      2.57731955e-002 2.57731955e-002 5.67010306e-002 7.21649453e-002
      1.03092780e-002 5.15463902e-003 5.15463902e-003 0. 5.15463902e-003
      7.21649453e-002 4.12371121e-002 0. 5.67010306e-002</_>
    <_>
      2.66272202e-002 2.07100585e-002 2.36686394e-002 2.07100585e-002
      5.91715984e-002 4.14201170e-002 8.87573976e-003 4.14201170e-002
      8.87573976e-003 1.18343197e-002 3.55029590e-002 2.95857992e-002
      3.25443782e-002 8.87573976e-003 2.07100585e-002 2.36686394e-002
      3.55029590e-002 4.43786979e-002 2.66272202e-002 4.14201170e-002
      5.02958596e-002 1.77514795e-002 3.84615399e-002 2.66272202e-002
      2.66272202e-002 8.87573976e-003 6.80473372e-002 2.66272202e-002
      2.66272202e-002 1.18343197e-002 5.91715984e-003 2.95857992e-003
      5.91715984e-003 2.95857992e-003 0. 2.07100585e-002 5.02958596e-002
      1.18343197e-002 3.55029590e-002</_>
    <_>
      2.66272202e-002 2.07100585e-002 2.36686394e-002 2.07100585e-002
      5.91715984e-002 4.14201170e-002 8.87573976e-003 4.14201170e-002
      8.87573976e-003 1.18343197e-002 3.55029590e-002 2.95857992e-002
      3.25443782e-002 8.87573976e-003 2.07100585e-002 2.36686394e-002
      3.55029590e-002 4.43786979e-002 2.66272202e-002 4.14201170e-002
      5.02958596e-002 1.77514795e-002 3.84615399e-002 2.66272202e-002
      2.66272202e-002 8.87573976e-003 6.80473372e-002 2.66272202e-002
      2.66272202e-002 1.18343197e-002 5.91715984e-003 2.95857992e-003
      5.91715984e-003 2.95857992e-003 0. 2.07100585e-002 5.02958596e-002
      1.18343197e-002 3.55029590e-002</_>
    <_>
      2.66272202e-002 2.07100585e-002 2.36686394e-002 2.07100585e-002
      5.91715984e-002 4.14201170e-002 8.87573976e-003 4.14201170e-002
      8.87573976e-003 1.18343197e-002 3.55029590e-002 2.95857992e-002
      3.25443782e-002 8.87573976e-003 2.07100585e-002 2.36686394e-002
      3.55029590e-002 4.43786979e-002 2.66272202e-002 4.14201170e-002
      5.02958596e-002 1.77514795e-002 3.84615399e-002 2.66272202e-002
      2.66272202e-002 8.87573976e-003 6.80473372e-002 2.66272202e-002
      2.66272202e-002 1.18343197e-002 5.91715984e-003 2.95857992e-003
      5.91715984e-003 2.95857992e-003 0. 2.07100585e-002 5.02958596e-002
      1.18343197e-002 3.55029590e-002</_>
    <_>
      2.66272202e-002 2.07100585e-002 2.36686394e-002 2.07100585e-002
      5.91715984e-002 4.14201170e-002 8.87573976e-003 4.14201170e-002
      8.87573976e-003 1.18343197e-002 3.55029590e-002 2.95857992e-002
      3.25443782e-002 8.87573976e-003 2.07100585e-002 2.36686394e-002
      3.55029590e-002 4.43786979e-002 2.66272202e-002 4.14201170e-002
      5.02958596e-002 1.77514795e-002 3.84615399e-002 2.66272202e-002
      2.66272202e-002 8.87573976e-003 6.80473372e-002 2.66272202e-002
      2.66272202e-002 1.18343197e-002 5.91715984e-003 2.95857992e-003
      5.91715984e-003 2.95857992e-003 0. 2.07100585e-002 5.02958596e-002
      1.18343197e-002 3.55029590e-002</_>
    <_>
      2.16216221e-002 4.45945971e-002 5.13513535e-002 5.27027026e-002
      1.75675675e-002 4.59459461e-002 5.40540554e-003 1.08108111e-002
      5.00000007e-002 3.64864878e-002 9.45946015e-003 2.02702712e-002
      1.62162166e-002 1.75675675e-002 2.97297314e-002 3.24324332e-002
      2.16216221e-002 2.02702712e-002 5.13513535e-002 2.43243240e-002
      1.35135138e-002 6.62162155e-002 2.43243240e-002 5.40540554e-003
      8.10810830e-003 1.21621620e-002 1.35135138e-002 9.45946015e-003
      4.05405415e-003 1.21621620e-002 1.48648657e-002 5.00000007e-002
      2.43243240e-002 2.16216221e-002 2.29729731e-002 2.43243240e-002
      6.75675692e-003 7.83783793e-002 8.10810830e-003</_>
    <_>
      2.16216221e-002 4.45945971e-002 5.13513535e-002 5.27027026e-002
      1.75675675e-002 4.59459461e-002 5.40540554e-003 1.08108111e-002
      5.00000007e-002 3.64864878e-002 9.45946015e-003 2.02702712e-002
      1.62162166e-002 1.75675675e-002 2.97297314e-002 3.24324332e-002
      2.16216221e-002 2.02702712e-002 5.13513535e-002 2.43243240e-002
      1.35135138e-002 6.62162155e-002 2.43243240e-002 5.40540554e-003
      8.10810830e-003 1.21621620e-002 1.35135138e-002 9.45946015e-003
      4.05405415e-003 1.21621620e-002 1.48648657e-002 5.00000007e-002
      2.43243240e-002 2.16216221e-002 2.29729731e-002 2.43243240e-002
      6.75675692e-003 7.83783793e-002 8.10810830e-003</_>
    <_>
      2.16216221e-002 4.45945971e-002 5.13513535e-002 5.27027026e-002
      1.75675675e-002 4.59459461e-002 5.40540554e-003 1.08108111e-002
      5.00000007e-002 3.64864878e-002 9.45946015e-003 2.02702712e-002
      1.62162166e-002 1.75675675e-002 2.97297314e-002 3.24324332e-002
      2.16216221e-002 2.02702712e-002 5.13513535e-002 2.43243240e-002
      1.35135138e-002 6.62162155e-002 2.43243240e-002 5.40540554e-003
      8.10810830e-003 1.21621620e-002 1.35135138e-002 9.45946015e-003
      4.05405415e-003 1.21621620e-002 1.48648657e-002 5.00000007e-002
      2.43243240e-002 2.16216221e-002 2.29729731e-002 2.43243240e-002
      6.75675692e-003 7.83783793e-002 8.10810830e-003</_>
    <_>
      2.16216221e-002 4.45945971e-002 5.13513535e-002 5.27027026e-002
      1.75675675e-002 4.59459461e-002 5.40540554e-003 1.08108111e-002
      5.00000007e-002 3.64864878e-002 9.45946015e-003 2.02702712e-002
      1.62162166e-002 1.75675675e-002 2.97297314e-002 3.24324332e-002
      2.16216221e-002 2.02702712e-002 5.13513535e-002 2.43243240e-002
      1.35135138e-002 6.62162155e-002 2.43243240e-002 5.40540554e-003
      8.10810830e-003 1.21621620e-002 1.35135138e-002 9.45946015e-003
      4.05405415e-003 1.21621620e-002 1.48648657e-002 5.00000007e-002
      2.43243240e-002 2.16216221e-002 2.29729731e-002 2.43243240e-002
      6.75675692e-003 7.83783793e-002 8.10810830e-003</_>
    <_>
      2.91095898e-002 1.54109588e-002 3.42465751e-003 3.08219176e-002
      2.56849304e-002 4.62328754e-002 2.56849304e-002 3.59589048e-002
      1.71232875e-002 1.71232875e-003 2.56849304e-002 3.08219176e-002
      2.91095898e-002 2.56849304e-002 4.96575348e-002 1.88356154e-002
      3.42465751e-002 4.79452051e-002 6.50684908e-002 2.22602747e-002
      2.22602747e-002 5.13698608e-002 5.47945201e-002 2.05479451e-002
      2.73972601e-002 1.71232875e-002 2.22602747e-002 1.54109588e-002
      3.76712307e-002 1.88356154e-002 1.54109588e-002 3.42465751e-003
      5.13698626e-003 1.02739725e-002 1.19863013e-002 3.93835604e-002
      2.22602747e-002 0. 2.39726026e-002</_>
    <_>
      2.91095898e-002 1.54109588e-002 3.42465751e-003 3.08219176e-002
      2.56849304e-002 4.62328754e-002 2.56849304e-002 3.59589048e-002
      1.71232875e-002 1.71232875e-003 2.56849304e-002 3.08219176e-002
      2.91095898e-002 2.56849304e-002 4.96575348e-002 1.88356154e-002
      3.42465751e-002 4.79452051e-002 6.50684908e-002 2.22602747e-002
      2.22602747e-002 5.13698608e-002 5.47945201e-002 2.05479451e-002
      2.73972601e-002 1.71232875e-002 2.22602747e-002 1.54109588e-002
      3.76712307e-002 1.88356154e-002 1.54109588e-002 3.42465751e-003
      5.13698626e-003 1.02739725e-002 1.19863013e-002 3.93835604e-002
      2.22602747e-002 0. 2.39726026e-002</_>
    <_>
      2.91095898e-002 1.54109588e-002 3.42465751e-003 3.08219176e-002
      2.56849304e-002 4.62328754e-002 2.56849304e-002 3.59589048e-002
      1.71232875e-002 1.71232875e-003 2.56849304e-002 3.08219176e-002
      2.91095898e-002 2.56849304e-002 4.96575348e-002 1.88356154e-002
      3.42465751e-002 4.79452051e-002 6.50684908e-002 2.22602747e-002
      2.22602747e-002 5.13698608e-002 5.47945201e-002 2.05479451e-002
      2.73972601e-002 1.71232875e-002 2.22602747e-002 1.54109588e-002
      3.76712307e-002 1.88356154e-002 1.54109588e-002 3.42465751e-003
      5.13698626e-003 1.02739725e-002 1.19863013e-002 3.93835604e-002
      2.22602747e-002 0. 2.39726026e-002</_>
    <_>
      2.91095898e-002 1.54109588e-002 3.42465751e-003 3.08219176e-002
      2.56849304e-002 4.62328754e-002 2.56849304e-002 3.59589048e-002
      1.71232875e-002 1.71232875e-003 2.56849304e-002 3.08219176e-002
      2.91095898e-002 2.56849304e-002 4.96575348e-002 1.88356154e-002
      3.42465751e-002 4.79452051e-002 6.50684908e-002 2.22602747e-002
      2.22602747e-002 5.13698608e-002 5.47945201e-002 2.05479451e-002
      2.73972601e-002 1.71232875e-002 2.22602747e-002 1.54109588e-002
      3.76712307e-002 1.88356154e-002 1.54109588e-002 3.42465751e-003
      5.13698626e-003 1.02739725e-002 1.19863013e-002 3.93835604e-002
      2.22602747e-002 0. 2.39726026e-002</_>
    <_>
      5.68181835e-003 2.27272734e-002 0. 5.11363670e-002 9.65909138e-002
      3.97727266e-002 2.27272734e-002 5.11363670e-002 1.13636367e-002 0.
      0. 7.38636404e-002 0. 0. 3.40909101e-002 2.27272734e-002
      5.68181835e-003 1.70454551e-002 5.11363670e-002 3.40909101e-002
      2.27272734e-002 1.13636367e-002 1.70454551e-002 3.97727266e-002
      6.81818202e-002 1.13636367e-002 5.68181835e-002 5.68181835e-002 0.
      5.68181835e-003 1.13636367e-002 0. 0. 5.68181835e-003
      1.70454551e-002 1.70454551e-002 5.68181835e-002 5.68181835e-003
      5.68181835e-002</_>
    <_>
      5.68181835e-003 2.27272734e-002 0. 5.11363670e-002 9.65909138e-002
      3.97727266e-002 2.27272734e-002 5.11363670e-002 1.13636367e-002 0.
      0. 7.38636404e-002 0. 0. 3.40909101e-002 2.27272734e-002
      5.68181835e-003 1.70454551e-002 5.11363670e-002 3.40909101e-002
      2.27272734e-002 1.13636367e-002 1.70454551e-002 3.97727266e-002
      6.81818202e-002 1.13636367e-002 5.68181835e-002 5.68181835e-002 0.
      5.68181835e-003 1.13636367e-002 0. 0. 5.68181835e-003
      1.70454551e-002 1.70454551e-002 5.68181835e-002 5.68181835e-003
      5.68181835e-002</_>
    <_>
      5.68181835e-003 2.27272734e-002 0. 5.11363670e-002 9.65909138e-002
      3.97727266e-002 2.27272734e-002 5.11363670e-002 1.13636367e-002 0.
      0. 7.38636404e-002 0. 0. 3.40909101e-002 2.27272734e-002
      5.68181835e-003 1.70454551e-002 5.11363670e-002 3.40909101e-002
      2.27272734e-002 1.13636367e-002 1.70454551e-002 3.97727266e-002
      6.81818202e-002 1.13636367e-002 5.68181835e-002 5.68181835e-002 0.
      5.68181835e-003 1.13636367e-002 0. 0. 5.68181835e-003
      1.70454551e-002 1.70454551e-002 5.68181835e-002 5.68181835e-003
      5.68181835e-002</_>
    <_>
      5.68181835e-003 2.27272734e-002 0. 5.11363670e-002 9.65909138e-002
      3.97727266e-002 2.27272734e-002 5.11363670e-002 1.13636367e-002 0.
      0. 7.38636404e-002 0. 0. 3.40909101e-002 2.27272734e-002
      5.68181835e-003 1.70454551e-002 5.11363670e-002 3.40909101e-002
      2.27272734e-002 1.13636367e-002 1.70454551e-002 3.97727266e-002
      6.81818202e-002 1.13636367e-002 5.68181835e-002 5.68181835e-002 0.
      5.68181835e-003 1.13636367e-002 0. 0. 5.68181835e-003
      1.70454551e-002 1.70454551e-002 5.68181835e-002 5.68181835e-003
      5.68181835e-002</_>
    <_>
      8.48896429e-003 4.58404087e-002 5.77249601e-002 3.56536508e-002
      7.80984759e-002 3.39558572e-002 1.86757222e-002 1.86757222e-002
      8.65874365e-002 4.58404087e-002 1.35823432e-002 8.48896429e-003
      1.69779286e-002 1.52801359e-002 1.86757222e-002 1.01867579e-002
      3.05602718e-002 1.18845506e-002 4.58404087e-002 2.71646865e-002
      1.18845506e-002 1.35823432e-002 8.48896429e-003 1.18845506e-002
      4.41426151e-002 1.52801359e-002 2.37691011e-002 2.88624801e-002
      1.52801359e-002 1.69779290e-003 3.56536508e-002 2.20713075e-002
      3.22580636e-002 1.35823432e-002 1.69779286e-002 8.48896429e-003
      2.20713075e-002 3.22580636e-002 1.35823432e-002</_>
    <_>
      8.48896429e-003 4.58404087e-002 5.77249601e-002 3.56536508e-002
      7.80984759e-002 3.39558572e-002 1.86757222e-002 1.86757222e-002
      8.65874365e-002 4.58404087e-002 1.35823432e-002 8.48896429e-003
      1.69779286e-002 1.52801359e-002 1.86757222e-002 1.01867579e-002
      3.05602718e-002 1.18845506e-002 4.58404087e-002 2.71646865e-002
      1.18845506e-002 1.35823432e-002 8.48896429e-003 1.18845506e-002
      4.41426151e-002 1.52801359e-002 2.37691011e-002 2.88624801e-002
      1.52801359e-002 1.69779290e-003 3.56536508e-002 2.20713075e-002
      3.22580636e-002 1.35823432e-002 1.69779286e-002 8.48896429e-003
      2.20713075e-002 3.22580636e-002 1.35823432e-002</_>
    <_>
      8.48896429e-003 4.58404087e-002 5.77249601e-002 3.56536508e-002
      7.80984759e-002 3.39558572e-002 1.86757222e-002 1.86757222e-002
      8.65874365e-002 4.58404087e-002 1.35823432e-002 8.48896429e-003
      1.69779286e-002 1.52801359e-002 1.86757222e-002 1.01867579e-002
      3.05602718e-002 1.18845506e-002 4.58404087e-002 2.71646865e-002
      1.18845506e-002 1.35823432e-002 8.48896429e-003 1.18845506e-002
      4.41426151e-002 1.52801359e-002 2.37691011e-002 2.88624801e-002
      1.52801359e-002 1.69779290e-003 3.56536508e-002 2.20713075e-002
      3.22580636e-002 1.35823432e-002 1.69779286e-002 8.48896429e-003
      2.20713075e-002 3.22580636e-002 1.35823432e-002</_>
    <_>
      8.48896429e-003 4.58404087e-002 5.77249601e-002 3.56536508e-002
      7.80984759e-002 3.39558572e-002 1.86757222e-002 1.86757222e-002
      8.65874365e-002 4.58404087e-002 1.35823432e-002 8.48896429e-003
      1.69779286e-002 1.52801359e-002 1.86757222e-002 1.01867579e-002
      3.05602718e-002 1.18845506e-002 4.58404087e-002 2.71646865e-002
      1.18845506e-002 1.35823432e-002 8.48896429e-003 1.18845506e-002
      4.41426151e-002 1.52801359e-002 2.37691011e-002 2.88624801e-002
      1.52801359e-002 1.69779290e-003 3.56536508e-002 2.20713075e-002
      3.22580636e-002 1.35823432e-002 1.69779286e-002 8.48896429e-003
      2.20713075e-002 3.22580636e-002 1.35823432e-002</_>
    <_>
      2.45033115e-001 2.64900662e-002 6.62251636e-002 6.62251655e-003
      1.32450331e-002 6.62251655e-003 6.62251655e-003 6.62251655e-003
      6.62251655e-003 6.62251655e-003 2.64900662e-002 6.62251655e-003 0.
      6.62251655e-003 6.62251655e-003 1.32450331e-002 6.62251636e-002
      5.29801324e-002 2.64900662e-002 3.31125818e-002 3.31125818e-002 0.
      1.39072850e-001 6.62251655e-003 0. 6.62251655e-003 0. 0. 0.
      5.96026480e-002 6.62251655e-003 6.62251655e-003 6.62251636e-002
      1.32450331e-002 0. 2.64900662e-002 6.62251655e-003 0. 0.</_>
    <_>
      2.45033115e-001 2.64900662e-002 6.62251636e-002 6.62251655e-003
      1.32450331e-002 6.62251655e-003 6.62251655e-003 6.62251655e-003
      6.62251655e-003 6.62251655e-003 2.64900662e-002 6.62251655e-003 0.
      6.62251655e-003 6.62251655e-003 1.32450331e-002 6.62251636e-002
      5.29801324e-002 2.64900662e-002 3.31125818e-002 3.31125818e-002 0.
      1.39072850e-001 6.62251655e-003 0. 6.62251655e-003 0. 0. 0.
      5.96026480e-002 6.62251655e-003 6.62251655e-003 6.62251636e-002
      1.32450331e-002 0. 2.64900662e-002 6.62251655e-003 0. 0.</_>
    <_>
      2.45033115e-001 2.64900662e-002 6.62251636e-002 6.62251655e-003
      1.32450331e-002 6.62251655e-003 6.62251655e-003 6.62251655e-003
      6.62251655e-003 6.62251655e-003 2.64900662e-002 6.62251655e-003 0.
      6.62251655e-003 6.62251655e-003 1.32450331e-002 6.62251636e-002
      5.29801324e-002 2.64900662e-002 3.31125818e-002 3.31125818e-002 0.
      1.39072850e-001 6.62251655e-003 0. 6.62251655e-003 0. 0. 0.
      5.96026480e-002 6.62251655e-003 6.62251655e-003 6.62251636e-002
      1.32450331e-002 0. 2.64900662e-002 6.62251655e-003 0. 0.</_>
    <_>
      2.45033115e-001 2.64900662e-002 6.62251636e-002 6.62251655e-003
      1.32450331e-002 6.62251655e-003 6.62251655e-003 6.62251655e-003
      6.62251655e-003 6.62251655e-003 2.64900662e-002 6.62251655e-003 0.
      6.62251655e-003 6.62251655e-003 1.32450331e-002 6.62251636e-002
      5.29801324e-002 2.64900662e-002 3.31125818e-002 3.31125818e-002 0.
      1.39072850e-001 6.62251655e-003 0. 6.62251655e-003 0. 0. 0.
      5.96026480e-002 6.62251655e-003 6.62251655e-003 6.62251636e-002
      1.32450331e-002 0. 2.64900662e-002 6.62251655e-003 0. 0.</_>
    <_>
      2.04603579e-002 5.62659837e-002 3.32480818e-002 6.90537095e-002
      2.81329919e-002 7.16112554e-002 2.04603579e-002 1.27877239e-002
      4.34782617e-002 5.11508947e-003 3.06905359e-002 2.81329919e-002
      5.11508947e-003 2.81329919e-002 6.64961636e-002 2.55754478e-002
      2.81329919e-002 7.67263398e-003 3.32480818e-002 3.58056277e-002
      2.81329919e-002 2.55754478e-002 4.34782617e-002 1.53452680e-002
      5.11508947e-003 1.02301789e-002 4.09207158e-002 3.32480818e-002
      2.55754478e-002 1.27877239e-002 1.53452680e-002 0. 1.02301789e-002
      1.02301789e-002 1.79028139e-002 1.27877239e-002 2.04603579e-002
      1.02301789e-002 1.27877239e-002</_>
    <_>
      2.04603579e-002 5.62659837e-002 3.32480818e-002 6.90537095e-002
      2.81329919e-002 7.16112554e-002 2.04603579e-002 1.27877239e-002
      4.34782617e-002 5.11508947e-003 3.06905359e-002 2.81329919e-002
      5.11508947e-003 2.81329919e-002 6.64961636e-002 2.55754478e-002
      2.81329919e-002 7.67263398e-003 3.32480818e-002 3.58056277e-002
      2.81329919e-002 2.55754478e-002 4.34782617e-002 1.53452680e-002
      5.11508947e-003 1.02301789e-002 4.09207158e-002 3.32480818e-002
      2.55754478e-002 1.27877239e-002 1.53452680e-002 0. 1.02301789e-002
      1.02301789e-002 1.79028139e-002 1.27877239e-002 2.04603579e-002
      1.02301789e-002 1.27877239e-002</_>
    <_>
      2.04603579e-002 5.62659837e-002 3.32480818e-002 6.90537095e-002
      2.81329919e-002 7.16112554e-002 2.04603579e-002 1.27877239e-002
      4.34782617e-002 5.11508947e-003 3.06905359e-002 2.81329919e-002
      5.11508947e-003 2.81329919e-002 6.64961636e-002 2.55754478e-002
      2.81329919e-002 7.67263398e-003 3.32480818e-002 3.58056277e-002
      2.81329919e-002 2.55754478e-002 4.34782617e-002 1.53452680e-002
      5.11508947e-003 1.02301789e-002 4.09207158e-002 3.32480818e-002
      2.55754478e-002 1.27877239e-002 1.53452680e-002 0. 1.02301789e-002
      1.02301789e-002 1.79028139e-002 1.27877239e-002 2.04603579e-002
      1.02301789e-002 1.27877239e-002</_>
    <_>
      2.04603579e-002 5.62659837e-002 3.32480818e-002 6.90537095e-002
      2.81329919e-002 7.16112554e-002 2.04603579e-002 1.27877239e-002
      4.34782617e-002 5.11508947e-003 3.06905359e-002 2.81329919e-002
      5.11508947e-003 2.81329919e-002 6.64961636e-002 2.55754478e-002
      2.81329919e-002 7.67263398e-003 3.32480818e-002 3.58056277e-002
      2.81329919e-002 2.55754478e-002 4.34782617e-002 1.53452680e-002
      5.11508947e-003 1.02301789e-002 4.09207158e-002 3.32480818e-002
      2.55754478e-002 1.27877239e-002 1.53452680e-002 0. 1.02301789e-002
      1.02301789e-002 1.79028139e-002 1.27877239e-002 2.04603579e-002
      1.02301789e-002 1.27877239e-002</_>
    <_>
      0. 2.79720277e-002 8.39160830e-002 4.19580415e-002 1.04895104e-002
      2.79720277e-002 6.99300691e-003 3.49650346e-003 4.19580415e-002
      4.54545468e-002 6.99300691e-003 1.04895104e-002 3.49650346e-003
      3.49650346e-003 3.49650346e-003 2.79720277e-002 1.04895104e-002
      3.14685330e-002 3.49650346e-002 3.49650346e-003 1.74825173e-002
      4.54545468e-002 0. 6.99300691e-003 0. 6.99300691e-002
      6.99300691e-003 6.99300691e-003 2.09790207e-002 3.49650346e-003
      7.69230723e-002 2.44755242e-002 9.09090936e-002 8.04195777e-002
      3.84615362e-002 6.99300691e-003 6.99300691e-003 6.64335638e-002
      3.49650346e-003</_>
    <_>
      0. 2.79720277e-002 8.39160830e-002 4.19580415e-002 1.04895104e-002
      2.79720277e-002 6.99300691e-003 3.49650346e-003 4.19580415e-002
      4.54545468e-002 6.99300691e-003 1.04895104e-002 3.49650346e-003
      3.49650346e-003 3.49650346e-003 2.79720277e-002 1.04895104e-002
      3.14685330e-002 3.49650346e-002 3.49650346e-003 1.74825173e-002
      4.54545468e-002 0. 6.99300691e-003 0. 6.99300691e-002
      6.99300691e-003 6.99300691e-003 2.09790207e-002 3.49650346e-003
      7.69230723e-002 2.44755242e-002 9.09090936e-002 8.04195777e-002
      3.84615362e-002 6.99300691e-003 6.99300691e-003 6.64335638e-002
      3.49650346e-003</_>
    <_>
      0. 2.79720277e-002 8.39160830e-002 4.19580415e-002 1.04895104e-002
      2.79720277e-002 6.99300691e-003 3.49650346e-003 4.19580415e-002
      4.54545468e-002 6.99300691e-003 1.04895104e-002 3.49650346e-003
      3.49650346e-003 3.49650346e-003 2.79720277e-002 1.04895104e-002
      3.14685330e-002 3.49650346e-002 3.49650346e-003 1.74825173e-002
      4.54545468e-002 0. 6.99300691e-003 0. 6.99300691e-002
      6.99300691e-003 6.99300691e-003 2.09790207e-002 3.49650346e-003
      7.69230723e-002 2.44755242e-002 9.09090936e-002 8.04195777e-002
      3.84615362e-002 6.99300691e-003 6.99300691e-003 6.64335638e-002
      3.49650346e-003</_>
    <_>
      0. 2.79720277e-002 8.39160830e-002 4.19580415e-002 1.04895104e-002
      2.79720277e-002 6.99300691e-003 3.49650346e-003 4.19580415e-002
      4.54545468e-002 6.99300691e-003 1.04895104e-002 3.49650346e-003
      3.49650346e-003 3.49650346e-003 2.79720277e-002 1.04895104e-002
      3.14685330e-002 3.49650346e-002 3.49650346e-003 1.74825173e-002
      4.54545468e-002 0. 6.99300691e-003 0. 6.99300691e-002
      6.99300691e-003 6.99300691e-003 2.09790207e-002 3.49650346e-003
      7.69230723e-002 2.44755242e-002 9.09090936e-002 8.04195777e-002
      3.84615362e-002 6.99300691e-003 6.99300691e-003 6.64335638e-002
      3.49650346e-003</_>
    <_>
      2.23214296e-003 4.91071455e-002 2.67857164e-002 7.14285746e-002
      4.01785746e-002 7.58928582e-002 5.13392873e-002 2.00892873e-002
      3.57142873e-002 8.92857183e-003 1.56250000e-002 1.11607146e-002
      2.67857164e-002 4.46428591e-003 3.79464291e-002 5.80357164e-002
      2.00892873e-002 1.56250000e-002 4.01785746e-002 8.92857183e-003
      3.57142873e-002 4.46428582e-002 8.92857183e-003 4.46428591e-003
      1.33928582e-002 2.23214296e-003 4.01785746e-002 1.33928582e-002
      6.69642910e-003 2.23214296e-003 1.33928582e-002 2.00892873e-002
      1.33928582e-002 6.69642910e-003 4.91071455e-002 3.79464291e-002
      2.67857164e-002 3.34821455e-002 6.69642910e-003</_>
    <_>
      2.23214296e-003 4.91071455e-002 2.67857164e-002 7.14285746e-002
      4.01785746e-002 7.58928582e-002 5.13392873e-002 2.00892873e-002
      3.57142873e-002 8.92857183e-003 1.56250000e-002 1.11607146e-002
      2.67857164e-002 4.46428591e-003 3.79464291e-002 5.80357164e-002
      2.00892873e-002 1.56250000e-002 4.01785746e-002 8.92857183e-003
      3.57142873e-002 4.46428582e-002 8.92857183e-003 4.46428591e-003
      1.33928582e-002 2.23214296e-003 4.01785746e-002 1.33928582e-002
      6.69642910e-003 2.23214296e-003 1.33928582e-002 2.00892873e-002
      1.33928582e-002 6.69642910e-003 4.91071455e-002 3.79464291e-002
      2.67857164e-002 3.34821455e-002 6.69642910e-003</_>
    <_>
      2.23214296e-003 4.91071455e-002 2.67857164e-002 7.14285746e-002
      4.01785746e-002 7.58928582e-002 5.13392873e-002 2.00892873e-002
      3.57142873e-002 8.92857183e-003 1.56250000e-002 1.11607146e-002
      2.67857164e-002 4.46428591e-003 3.79464291e-002 5.80357164e-002
      2.00892873e-002 1.56250000e-002 4.01785746e-002 8.92857183e-003
      3.57142873e-002 4.46428582e-002 8.92857183e-003 4.46428591e-003
      1.33928582e-002 2.23214296e-003 4.01785746e-002 1.33928582e-002
      6.69642910e-003 2.23214296e-003 1.33928582e-002 2.00892873e-002
      1.33928582e-002 6.69642910e-003 4.91071455e-002 3.79464291e-002
      2.67857164e-002 3.34821455e-002 6.69642910e-003</_>
    <_>
      2.23214296e-003 4.91071455e-002 2.67857164e-002 7.14285746e-002
      4.01785746e-002 7.58928582e-002 5.13392873e-002 2.00892873e-002
      3.57142873e-002 8.92857183e-003 1.56250000e-002 1.11607146e-002
      2.67857164e-002 4.46428591e-003 3.79464291e-002 5.80357164e-002
      2.00892873e-002 1.56250000e-002 4.01785746e-002 8.92857183e-003
      3.57142873e-002 4.46428582e-002 8.92857183e-003 4.46428591e-003
      1.33928582e-002 2.23214296e-003 4.01785746e-002 1.33928582e-002
      6.69642910e-003 2.23214296e-003 1.33928582e-002 2.00892873e-002
      1.33928582e-002 6.69642910e-003 4.91071455e-002 3.79464291e-002
      2.67857164e-002 3.34821455e-002 6.69642910e-003</_>
    <_>
      5.79710156e-002 2.07039341e-002 4.14078683e-002 2.69151144e-002
      1.03519671e-002 3.31262946e-002 4.14078683e-003 2.27743275e-002
      2.69151144e-002 2.27743275e-002 2.69151144e-002 2.69151144e-002
      1.86335407e-002 2.27743275e-002 1.86335407e-002 2.07039341e-002
      3.31262946e-002 4.14078683e-003 3.10559012e-002 2.89855078e-002
      1.24223605e-002 3.10559012e-002 6.21118024e-002 2.27743275e-002
      3.10559012e-002 2.27743275e-002 1.03519671e-002 2.07039341e-003
      4.76190485e-002 2.89855078e-002 2.69151144e-002 3.51966880e-002
      4.96894419e-002 3.93374749e-002 2.48447210e-002 1.24223605e-002
      4.14078683e-003 8.28157365e-003 2.89855078e-002</_>
    <_>
      5.79710156e-002 2.07039341e-002 4.14078683e-002 2.69151144e-002
      1.03519671e-002 3.31262946e-002 4.14078683e-003 2.27743275e-002
      2.69151144e-002 2.27743275e-002 2.69151144e-002 2.69151144e-002
      1.86335407e-002 2.27743275e-002 1.86335407e-002 2.07039341e-002
      3.31262946e-002 4.14078683e-003 3.10559012e-002 2.89855078e-002
      1.24223605e-002 3.10559012e-002 6.21118024e-002 2.27743275e-002
      3.10559012e-002 2.27743275e-002 1.03519671e-002 2.07039341e-003
      4.76190485e-002 2.89855078e-002 2.69151144e-002 3.51966880e-002
      4.96894419e-002 3.93374749e-002 2.48447210e-002 1.24223605e-002
      4.14078683e-003 8.28157365e-003 2.89855078e-002</_>
    <_>
      5.79710156e-002 2.07039341e-002 4.14078683e-002 2.69151144e-002
      1.03519671e-002 3.31262946e-002 4.14078683e-003 2.27743275e-002
      2.69151144e-002 2.27743275e-002 2.69151144e-002 2.69151144e-002
      1.86335407e-002 2.27743275e-002 1.86335407e-002 2.07039341e-002
      3.31262946e-002 4.14078683e-003 3.10559012e-002 2.89855078e-002
      1.24223605e-002 3.10559012e-002 6.21118024e-002 2.27743275e-002
      3.10559012e-002 2.27743275e-002 1.03519671e-002 2.07039341e-003
      4.76190485e-002 2.89855078e-002 2.69151144e-002 3.51966880e-002
      4.96894419e-002 3.93374749e-002 2.48447210e-002 1.24223605e-002
      4.14078683e-003 8.28157365e-003 2.89855078e-002</_>
    <_>
      5.79710156e-002 2.07039341e-002 4.14078683e-002 2.69151144e-002
      1.03519671e-002 3.31262946e-002 4.14078683e-003 2.27743275e-002
      2.69151144e-002 2.27743275e-002 2.69151144e-002 2.69151144e-002
      1.86335407e-002 2.27743275e-002 1.86335407e-002 2.07039341e-002
      3.31262946e-002 4.14078683e-003 3.10559012e-002 2.89855078e-002
      1.24223605e-002 3.10559012e-002 6.21118024e-002 2.27743275e-002
      3.10559012e-002 2.27743275e-002 1.03519671e-002 2.07039341e-003
      4.76190485e-002 2.89855078e-002 2.69151144e-002 3.51966880e-002
      4.96894419e-002 3.93374749e-002 2.48447210e-002 1.24223605e-002
      4.14078683e-003 8.28157365e-003 2.89855078e-002</_>
    <_>
      5.55555560e-002 3.36257294e-002 3.21637429e-002 3.36257294e-002
      3.65497097e-002 3.65497097e-002 2.04678364e-002 2.33918130e-002
      1.60818715e-002 4.38596494e-002 2.63157897e-002 1.16959065e-002
      1.16959065e-002 3.36257294e-002 2.92397663e-002 1.31578948e-002
      2.63157897e-002 1.16959065e-002 2.48538014e-002 1.60818715e-002
      8.77192989e-003 2.77777780e-002 3.94736826e-002 1.46198831e-002
      4.53216359e-002 2.19298247e-002 1.16959065e-002 2.04678364e-002
      2.33918130e-002 1.75438598e-002 2.77777780e-002 4.97076027e-002
      2.77777780e-002 3.21637429e-002 1.60818715e-002 2.63157897e-002
      1.75438598e-002 5.84795326e-003 2.92397663e-002</_>
    <_>
      5.55555560e-002 3.36257294e-002 3.21637429e-002 3.36257294e-002
      3.65497097e-002 3.65497097e-002 2.04678364e-002 2.33918130e-002
      1.60818715e-002 4.38596494e-002 2.63157897e-002 1.16959065e-002
      1.16959065e-002 3.36257294e-002 2.92397663e-002 1.31578948e-002
      2.63157897e-002 1.16959065e-002 2.48538014e-002 1.60818715e-002
      8.77192989e-003 2.77777780e-002 3.94736826e-002 1.46198831e-002
      4.53216359e-002 2.19298247e-002 1.16959065e-002 2.04678364e-002
      2.33918130e-002 1.75438598e-002 2.77777780e-002 4.97076027e-002
      2.77777780e-002 3.21637429e-002 1.60818715e-002 2.63157897e-002
      1.75438598e-002 5.84795326e-003 2.92397663e-002</_>
    <_>
      5.55555560e-002 3.36257294e-002 3.21637429e-002 3.36257294e-002
      3.65497097e-002 3.65497097e-002 2.04678364e-002 2.33918130e-002
      1.60818715e-002 4.38596494e-002 2.63157897e-002 1.16959065e-002
      1.16959065e-002 3.36257294e-002 2.92397663e-002 1.31578948e-002
      2.63157897e-002 1.16959065e-002 2.48538014e-002 1.60818715e-002
      8.77192989e-003 2.77777780e-002 3.94736826e-002 1.46198831e-002
      4.53216359e-002 2.19298247e-002 1.16959065e-002 2.04678364e-002
      2.33918130e-002 1.75438598e-002 2.77777780e-002 4.97076027e-002
      2.77777780e-002 3.21637429e-002 1.60818715e-002 2.63157897e-002
      1.75438598e-002 5.84795326e-003 2.92397663e-002</_>
    <_>
      5.55555560e-002 3.36257294e-002 3.21637429e-002 3.36257294e-002
      3.65497097e-002 3.65497097e-002 2.04678364e-002 2.33918130e-002
      1.60818715e-002 4.38596494e-002 2.63157897e-002 1.16959065e-002
      1.16959065e-002 3.36257294e-002 2.92397663e-002 1.31578948e-002
      2.63157897e-002 1.16959065e-002 2.48538014e-002 1.60818715e-002
      8.77192989e-003 2.77777780e-002 3.94736826e-002 1.46198831e-002
      4.53216359e-002 2.19298247e-002 1.16959065e-002 2.04678364e-002
      2.33918130e-002 1.75438598e-002 2.77777780e-002 4.97076027e-002
      2.77777780e-002 3.21637429e-002 1.60818715e-002 2.63157897e-002
      1.75438598e-002 5.84795326e-003 2.92397663e-002</_>
    <_>
      2.67379694e-002 4.01069522e-002 4.81283441e-002 4.81283441e-002
      7.75401071e-002 4.54545468e-002 2.67379684e-003 2.67379694e-002
      1.60427801e-002 1.06951874e-002 1.60427801e-002 1.06951874e-002
      8.02139007e-003 2.13903747e-002 2.13903747e-002 8.02139007e-003
      1.87165774e-002 9.62566882e-002 3.74331549e-002 2.13903747e-002
      2.67379694e-002 1.06951874e-002 2.67379694e-002 0. 5.34759387e-002
      1.06951874e-002 1.33689847e-002 2.40641721e-002 1.60427801e-002
      1.33689847e-002 2.67379694e-002 1.06951874e-002 2.94117648e-002
      2.94117648e-002 8.02139007e-003 2.13903747e-002 4.01069522e-002
      1.87165774e-002 1.87165774e-002</_>
    <_>
      2.67379694e-002 4.01069522e-002 4.81283441e-002 4.81283441e-002
      7.75401071e-002 4.54545468e-002 2.67379684e-003 2.67379694e-002
      1.60427801e-002 1.06951874e-002 1.60427801e-002 1.06951874e-002
      8.02139007e-003 2.13903747e-002 2.13903747e-002 8.02139007e-003
      1.87165774e-002 9.62566882e-002 3.74331549e-002 2.13903747e-002
      2.67379694e-002 1.06951874e-002 2.67379694e-002 0. 5.34759387e-002
      1.06951874e-002 1.33689847e-002 2.40641721e-002 1.60427801e-002
      1.33689847e-002 2.67379694e-002 1.06951874e-002 2.94117648e-002
      2.94117648e-002 8.02139007e-003 2.13903747e-002 4.01069522e-002
      1.87165774e-002 1.87165774e-002</_>
    <_>
      2.67379694e-002 4.01069522e-002 4.81283441e-002 4.81283441e-002
      7.75401071e-002 4.54545468e-002 2.67379684e-003 2.67379694e-002
      1.60427801e-002 1.06951874e-002 1.60427801e-002 1.06951874e-002
      8.02139007e-003 2.13903747e-002 2.13903747e-002 8.02139007e-003
      1.87165774e-002 9.62566882e-002 3.74331549e-002 2.13903747e-002
      2.67379694e-002 1.06951874e-002 2.67379694e-002 0. 5.34759387e-002
      1.06951874e-002 1.33689847e-002 2.40641721e-002 1.60427801e-002
      1.33689847e-002 2.67379694e-002 1.06951874e-002 2.94117648e-002
      2.94117648e-002 8.02139007e-003 2.13903747e-002 4.01069522e-002
      1.87165774e-002 1.87165774e-002</_>
    <_>
      2.67379694e-002 4.01069522e-002 4.81283441e-002 4.81283441e-002
      7.75401071e-002 4.54545468e-002 2.67379684e-003 2.67379694e-002
      1.60427801e-002 1.06951874e-002 1.60427801e-002 1.06951874e-002
      8.02139007e-003 2.13903747e-002 2.13903747e-002 8.02139007e-003
      1.87165774e-002 9.62566882e-002 3.74331549e-002 2.13903747e-002
      2.67379694e-002 1.06951874e-002 2.67379694e-002 0. 5.34759387e-002
      1.06951874e-002 1.33689847e-002 2.40641721e-002 1.60427801e-002
      1.33689847e-002 2.67379694e-002 1.06951874e-002 2.94117648e-002
      2.94117648e-002 8.02139007e-003 2.13903747e-002 4.01069522e-002
      1.87165774e-002 1.87165774e-002</_>
    <_>
      8.95522349e-003 1.19402986e-002 2.38805972e-002 2.08955221e-002
      5.67164198e-002 2.08955221e-002 2.38805972e-002 1.79104470e-002
      5.97014930e-003 5.97014930e-003 3.88059691e-002 4.77611944e-002
      4.17910442e-002 2.68656723e-002 5.37313446e-002 8.95522349e-003
      6.56716451e-002 3.58208939e-002 5.67164198e-002 5.37313446e-002
      1.49253737e-002 1.49253737e-002 6.56716451e-002 2.98507474e-002
      1.79104470e-002 2.98507465e-003 1.49253737e-002 3.88059691e-002
      2.68656723e-002 5.97014930e-003 1.19402986e-002 2.98507465e-003
      2.98507465e-003 5.97014930e-003 8.95522349e-003 3.58208939e-002
      1.49253737e-002 3.58208939e-002 2.08955221e-002</_>
    <_>
      8.95522349e-003 1.19402986e-002 2.38805972e-002 2.08955221e-002
      5.67164198e-002 2.08955221e-002 2.38805972e-002 1.79104470e-002
      5.97014930e-003 5.97014930e-003 3.88059691e-002 4.77611944e-002
      4.17910442e-002 2.68656723e-002 5.37313446e-002 8.95522349e-003
      6.56716451e-002 3.58208939e-002 5.67164198e-002 5.37313446e-002
      1.49253737e-002 1.49253737e-002 6.56716451e-002 2.98507474e-002
      1.79104470e-002 2.98507465e-003 1.49253737e-002 3.88059691e-002
      2.68656723e-002 5.97014930e-003 1.19402986e-002 2.98507465e-003
      2.98507465e-003 5.97014930e-003 8.95522349e-003 3.58208939e-002
      1.49253737e-002 3.58208939e-002 2.08955221e-002</_>
    <_>
      8.95522349e-003 1.19402986e-002 2.38805972e-002 2.08955221e-002
      5.67164198e-002 2.08955221e-002 2.38805972e-002 1.79104470e-002
      5.97014930e-003 5.97014930e-003 3.88059691e-002 4.77611944e-002
      4.17910442e-002 2.68656723e-002 5.37313446e-002 8.95522349e-003
      6.56716451e-002 3.58208939e-002 5.67164198e-002 5.37313446e-002
      1.49253737e-002 1.49253737e-002 6.56716451e-002 2.98507474e-002
      1.79104470e-002 2.98507465e-003 1.49253737e-002 3.88059691e-002
      2.68656723e-002 5.97014930e-003 1.19402986e-002 2.98507465e-003
      2.98507465e-003 5.97014930e-003 8.95522349e-003 3.58208939e-002
      1.49253737e-002 3.58208939e-002 2.08955221e-002</_>
    <_>
      8.95522349e-003 1.19402986e-002 2.38805972e-002 2.08955221e-002
      5.67164198e-002 2.08955221e-002 2.38805972e-002 1.79104470e-002
      5.97014930e-003 5.97014930e-003 3.88059691e-002 4.77611944e-002
      4.17910442e-002 2.68656723e-002 5.37313446e-002 8.95522349e-003
      6.56716451e-002 3.58208939e-002 5.67164198e-002 5.37313446e-002
      1.49253737e-002 1.49253737e-002 6.56716451e-002 2.98507474e-002
      1.79104470e-002 2.98507465e-003 1.49253737e-002 3.88059691e-002
      2.68656723e-002 5.97014930e-003 1.19402986e-002 2.98507465e-003
      2.98507465e-003 5.97014930e-003 8.95522349e-003 3.58208939e-002
      1.49253737e-002 3.58208939e-002 2.08955221e-002</_>
    <_>
      3.89863551e-002 1.55945420e-002 3.11890841e-002 3.70370373e-002
      3.89863551e-002 4.09356728e-002 2.53411308e-002 1.36452243e-002
      1.36452243e-002 1.16959065e-002 1.16959065e-002 1.36452243e-002
      1.16959065e-002 3.50877196e-002 4.48343083e-002 3.89863551e-002
      1.36452243e-002 1.75438598e-002 5.26315793e-002 1.94931775e-003
      2.72904485e-002 4.28849906e-002 2.53411308e-002 9.74658877e-003
      4.87329438e-002 2.92397663e-002 2.53411308e-002 1.75438598e-002
      1.75438598e-002 2.53411308e-002 1.75438598e-002 1.94931775e-002
      1.55945420e-002 2.53411308e-002 1.94931775e-002 7.60233924e-002
      1.16959065e-002 1.55945420e-002 2.14424953e-002</_>
    <_>
      3.89863551e-002 1.55945420e-002 3.11890841e-002 3.70370373e-002
      3.89863551e-002 4.09356728e-002 2.53411308e-002 1.36452243e-002
      1.36452243e-002 1.16959065e-002 1.16959065e-002 1.36452243e-002
      1.16959065e-002 3.50877196e-002 4.48343083e-002 3.89863551e-002
      1.36452243e-002 1.75438598e-002 5.26315793e-002 1.94931775e-003
      2.72904485e-002 4.28849906e-002 2.53411308e-002 9.74658877e-003
      4.87329438e-002 2.92397663e-002 2.53411308e-002 1.75438598e-002
      1.75438598e-002 2.53411308e-002 1.75438598e-002 1.94931775e-002
      1.55945420e-002 2.53411308e-002 1.94931775e-002 7.60233924e-002
      1.16959065e-002 1.55945420e-002 2.14424953e-002</_>
    <_>
      3.89863551e-002 1.55945420e-002 3.11890841e-002 3.70370373e-002
      3.89863551e-002 4.09356728e-002 2.53411308e-002 1.36452243e-002
      1.36452243e-002 1.16959065e-002 1.16959065e-002 1.36452243e-002
      1.16959065e-002 3.50877196e-002 4.48343083e-002 3.89863551e-002
      1.36452243e-002 1.75438598e-002 5.26315793e-002 1.94931775e-003
      2.72904485e-002 4.28849906e-002 2.53411308e-002 9.74658877e-003
      4.87329438e-002 2.92397663e-002 2.53411308e-002 1.75438598e-002
      1.75438598e-002 2.53411308e-002 1.75438598e-002 1.94931775e-002
      1.55945420e-002 2.53411308e-002 1.94931775e-002 7.60233924e-002
      1.16959065e-002 1.55945420e-002 2.14424953e-002</_>
    <_>
      3.89863551e-002 1.55945420e-002 3.11890841e-002 3.70370373e-002
      3.89863551e-002 4.09356728e-002 2.53411308e-002 1.36452243e-002
      1.36452243e-002 1.16959065e-002 1.16959065e-002 1.36452243e-002
      1.16959065e-002 3.50877196e-002 4.48343083e-002 3.89863551e-002
      1.36452243e-002 1.75438598e-002 5.26315793e-002 1.94931775e-003
      2.72904485e-002 4.28849906e-002 2.53411308e-002 9.74658877e-003
      4.87329438e-002 2.92397663e-002 2.53411308e-002 1.75438598e-002
      1.75438598e-002 2.53411308e-002 1.75438598e-002 1.94931775e-002
      1.55945420e-002 2.53411308e-002 1.94931775e-002 7.60233924e-002
      1.16959065e-002 1.55945420e-002 2.14424953e-002</_>
    <_>
      7.40740728e-003 4.74074073e-002 1.62962954e-002 4.59259264e-002
      2.51851846e-002 6.07407391e-002 2.07407400e-002 2.37037037e-002
      2.07407400e-002 1.48148148e-003 8.88888910e-003 3.40740755e-002
      1.33333337e-002 4.29629646e-002 4.44444455e-002 3.99999991e-002
      3.55555564e-002 2.66666673e-002 4.29629646e-002 4.74074073e-002
      4.74074073e-002 4.88888882e-002 1.33333337e-002 7.40740728e-003
      2.51851846e-002 2.96296296e-003 3.11111119e-002 2.22222228e-002
      5.92592591e-003 8.88888910e-003 1.62962954e-002 1.48148148e-003
      1.18518518e-002 0. 2.66666673e-002 3.25925909e-002 3.11111119e-002
      2.37037037e-002 3.70370373e-002</_>
    <_>
      7.40740728e-003 4.74074073e-002 1.62962954e-002 4.59259264e-002
      2.51851846e-002 6.07407391e-002 2.07407400e-002 2.37037037e-002
      2.07407400e-002 1.48148148e-003 8.88888910e-003 3.40740755e-002
      1.33333337e-002 4.29629646e-002 4.44444455e-002 3.99999991e-002
      3.55555564e-002 2.66666673e-002 4.29629646e-002 4.74074073e-002
      4.74074073e-002 4.88888882e-002 1.33333337e-002 7.40740728e-003
      2.51851846e-002 2.96296296e-003 3.11111119e-002 2.22222228e-002
      5.92592591e-003 8.88888910e-003 1.62962954e-002 1.48148148e-003
      1.18518518e-002 0. 2.66666673e-002 3.25925909e-002 3.11111119e-002
      2.37037037e-002 3.70370373e-002</_>
    <_>
      7.40740728e-003 4.74074073e-002 1.62962954e-002 4.59259264e-002
      2.51851846e-002 6.07407391e-002 2.07407400e-002 2.37037037e-002
      2.07407400e-002 1.48148148e-003 8.88888910e-003 3.40740755e-002
      1.33333337e-002 4.29629646e-002 4.44444455e-002 3.99999991e-002
      3.55555564e-002 2.66666673e-002 4.29629646e-002 4.74074073e-002
      4.74074073e-002 4.88888882e-002 1.33333337e-002 7.40740728e-003
      2.51851846e-002 2.96296296e-003 3.11111119e-002 2.22222228e-002
      5.92592591e-003 8.88888910e-003 1.62962954e-002 1.48148148e-003
      1.18518518e-002 0. 2.66666673e-002 3.25925909e-002 3.11111119e-002
      2.37037037e-002 3.70370373e-002</_>
    <_>
      7.40740728e-003 4.74074073e-002 1.62962954e-002 4.59259264e-002
      2.51851846e-002 6.07407391e-002 2.07407400e-002 2.37037037e-002
      2.07407400e-002 1.48148148e-003 8.88888910e-003 3.40740755e-002
      1.33333337e-002 4.29629646e-002 4.44444455e-002 3.99999991e-002
      3.55555564e-002 2.66666673e-002 4.29629646e-002 4.74074073e-002
      4.74074073e-002 4.88888882e-002 1.33333337e-002 7.40740728e-003
      2.51851846e-002 2.96296296e-003 3.11111119e-002 2.22222228e-002
      5.92592591e-003 8.88888910e-003 1.62962954e-002 1.48148148e-003
      1.18518518e-002 0. 2.66666673e-002 3.25925909e-002 3.11111119e-002
      2.37037037e-002 3.70370373e-002</_>
    <_>
      0. 2.74725296e-002 7.69230817e-003 2.41758246e-002 1.23076931e-001
      3.29670347e-002 6.04395643e-002 1.53846163e-002 7.03296736e-002
      1.09890115e-003 7.69230817e-003 3.84615399e-002 1.20879123e-002
      6.26373664e-002 3.73626389e-002 2.85714306e-002 8.79120920e-003
      5.49450563e-003 5.27472571e-002 1.09890113e-002 2.74725296e-002
      5.60439602e-002 0. 1.97802205e-002 4.17582430e-002 3.29670357e-003
      4.61538471e-002 2.74725296e-002 8.79120920e-003 1.09890115e-003
      9.89011023e-003 0. 3.29670357e-003 1.09890115e-003 1.64835174e-002
      3.18681337e-002 4.50549461e-002 8.79120920e-003 2.41758246e-002</_>
    <_>
      0. 2.74725296e-002 7.69230817e-003 2.41758246e-002 1.23076931e-001
      3.29670347e-002 6.04395643e-002 1.53846163e-002 7.03296736e-002
      1.09890115e-003 7.69230817e-003 3.84615399e-002 1.20879123e-002
      6.26373664e-002 3.73626389e-002 2.85714306e-002 8.79120920e-003
      5.49450563e-003 5.27472571e-002 1.09890113e-002 2.74725296e-002
      5.60439602e-002 0. 1.97802205e-002 4.17582430e-002 3.29670357e-003
      4.61538471e-002 2.74725296e-002 8.79120920e-003 1.09890115e-003
      9.89011023e-003 0. 3.29670357e-003 1.09890115e-003 1.64835174e-002
      3.18681337e-002 4.50549461e-002 8.79120920e-003 2.41758246e-002</_>
    <_>
      0. 2.74725296e-002 7.69230817e-003 2.41758246e-002 1.23076931e-001
      3.29670347e-002 6.04395643e-002 1.53846163e-002 7.03296736e-002
      1.09890115e-003 7.69230817e-003 3.84615399e-002 1.20879123e-002
      6.26373664e-002 3.73626389e-002 2.85714306e-002 8.79120920e-003
      5.49450563e-003 5.27472571e-002 1.09890113e-002 2.74725296e-002
      5.60439602e-002 0. 1.97802205e-002 4.17582430e-002 3.29670357e-003
      4.61538471e-002 2.74725296e-002 8.79120920e-003 1.09890115e-003
      9.89011023e-003 0. 3.29670357e-003 1.09890115e-003 1.64835174e-002
      3.18681337e-002 4.50549461e-002 8.79120920e-003 2.41758246e-002</_>
    <_>
      0. 2.74725296e-002 7.69230817e-003 2.41758246e-002 1.23076931e-001
      3.29670347e-002 6.04395643e-002 1.53846163e-002 7.03296736e-002
      1.09890115e-003 7.69230817e-003 3.84615399e-002 1.20879123e-002
      6.26373664e-002 3.73626389e-002 2.85714306e-002 8.79120920e-003
      5.49450563e-003 5.27472571e-002 1.09890113e-002 2.74725296e-002
      5.60439602e-002 0. 1.97802205e-002 4.17582430e-002 3.29670357e-003
      4.61538471e-002 2.74725296e-002 8.79120920e-003 1.09890115e-003
      9.89011023e-003 0. 3.29670357e-003 1.09890115e-003 1.64835174e-002
      3.18681337e-002 4.50549461e-002 8.79120920e-003 2.41758246e-002</_>
    <_>
      9.11854114e-003 4.86322194e-002 7.90273547e-002 2.73556225e-002
      5.47112450e-002 5.47112450e-002 0. 0. 7.90273547e-002
      4.55927067e-002 6.07902743e-003 6.07902743e-003 1.51975686e-002
      2.73556225e-002 9.11854114e-003 2.73556225e-002 1.82370823e-002
      4.25531939e-002 9.42249224e-002 6.07902743e-003 1.82370823e-002
      4.25531939e-002 3.03951371e-003 3.03951371e-003 3.03951371e-003
      1.82370823e-002 6.07902743e-003 0. 2.73556225e-002 6.07902743e-003
      4.86322194e-002 9.11854114e-003 3.34346518e-002 3.03951371e-002
      2.43161097e-002 2.73556225e-002 1.51975686e-002 3.03951371e-002
      3.03951371e-003</_>
    <_>
      9.11854114e-003 4.86322194e-002 7.90273547e-002 2.73556225e-002
      5.47112450e-002 5.47112450e-002 0. 0. 7.90273547e-002
      4.55927067e-002 6.07902743e-003 6.07902743e-003 1.51975686e-002
      2.73556225e-002 9.11854114e-003 2.73556225e-002 1.82370823e-002
      4.25531939e-002 9.42249224e-002 6.07902743e-003 1.82370823e-002
      4.25531939e-002 3.03951371e-003 3.03951371e-003 3.03951371e-003
      1.82370823e-002 6.07902743e-003 0. 2.73556225e-002 6.07902743e-003
      4.86322194e-002 9.11854114e-003 3.34346518e-002 3.03951371e-002
      2.43161097e-002 2.73556225e-002 1.51975686e-002 3.03951371e-002
      3.03951371e-003</_>
    <_>
      9.11854114e-003 4.86322194e-002 7.90273547e-002 2.73556225e-002
      5.47112450e-002 5.47112450e-002 0. 0. 7.90273547e-002
      4.55927067e-002 6.07902743e-003 6.07902743e-003 1.51975686e-002
      2.73556225e-002 9.11854114e-003 2.73556225e-002 1.82370823e-002
      4.25531939e-002 9.42249224e-002 6.07902743e-003 1.82370823e-002
      4.25531939e-002 3.03951371e-003 3.03951371e-003 3.03951371e-003
      1.82370823e-002 6.07902743e-003 0. 2.73556225e-002 6.07902743e-003
      4.86322194e-002 9.11854114e-003 3.34346518e-002 3.03951371e-002
      2.43161097e-002 2.73556225e-002 1.51975686e-002 3.03951371e-002
      3.03951371e-003</_>
    <_>
      9.11854114e-003 4.86322194e-002 7.90273547e-002 2.73556225e-002
      5.47112450e-002 5.47112450e-002 0. 0. 7.90273547e-002
      4.55927067e-002 6.07902743e-003 6.07902743e-003 1.51975686e-002
      2.73556225e-002 9.11854114e-003 2.73556225e-002 1.82370823e-002
      4.25531939e-002 9.42249224e-002 6.07902743e-003 1.82370823e-002
      4.25531939e-002 3.03951371e-003 3.03951371e-003 3.03951371e-003
      1.82370823e-002 6.07902743e-003 0. 2.73556225e-002 6.07902743e-003
      4.86322194e-002 9.11854114e-003 3.34346518e-002 3.03951371e-002
      2.43161097e-002 2.73556225e-002 1.51975686e-002 3.03951371e-002
      3.03951371e-003</_>
    <_>
      4.02930416e-002 2.56410260e-002 6.22710623e-002 6.95970729e-002
      3.66300368e-003 4.39560451e-002 2.19780225e-002 7.32600736e-003
      1.06227107e-001 2.93040294e-002 0. 0. 3.66300368e-003
      7.32600736e-003 0. 8.79120901e-002 1.46520147e-002 0.
      5.49450554e-002 1.09890113e-002 3.66300368e-003 2.56410260e-002 0.
      0. 3.66300368e-003 2.56410260e-002 1.09890113e-002 1.83150191e-002
      3.66300368e-003 0. 9.15750936e-002 3.66300368e-003 8.05860832e-002
      4.02930416e-002 4.76190485e-002 7.32600736e-003 3.66300368e-003
      4.39560451e-002 0.</_>
    <_>
      4.02930416e-002 2.56410260e-002 6.22710623e-002 6.95970729e-002
      3.66300368e-003 4.39560451e-002 2.19780225e-002 7.32600736e-003
      1.06227107e-001 2.93040294e-002 0. 0. 3.66300368e-003
      7.32600736e-003 0. 8.79120901e-002 1.46520147e-002 0.
      5.49450554e-002 1.09890113e-002 3.66300368e-003 2.56410260e-002 0.
      0. 3.66300368e-003 2.56410260e-002 1.09890113e-002 1.83150191e-002
      3.66300368e-003 0. 9.15750936e-002 3.66300368e-003 8.05860832e-002
      4.02930416e-002 4.76190485e-002 7.32600736e-003 3.66300368e-003
      4.39560451e-002 0.</_>
    <_>
      4.02930416e-002 2.56410260e-002 6.22710623e-002 6.95970729e-002
      3.66300368e-003 4.39560451e-002 2.19780225e-002 7.32600736e-003
      1.06227107e-001 2.93040294e-002 0. 0. 3.66300368e-003
      7.32600736e-003 0. 8.79120901e-002 1.46520147e-002 0.
      5.49450554e-002 1.09890113e-002 3.66300368e-003 2.56410260e-002 0.
      0. 3.66300368e-003 2.56410260e-002 1.09890113e-002 1.83150191e-002
      3.66300368e-003 0. 9.15750936e-002 3.66300368e-003 8.05860832e-002
      4.02930416e-002 4.76190485e-002 7.32600736e-003 3.66300368e-003
      4.39560451e-002 0.</_>
    <_>
      4.02930416e-002 2.56410260e-002 6.22710623e-002 6.95970729e-002
      3.66300368e-003 4.39560451e-002 2.19780225e-002 7.32600736e-003
      1.06227107e-001 2.93040294e-002 0. 0. 3.66300368e-003
      7.32600736e-003 0. 8.79120901e-002 1.46520147e-002 0.
      5.49450554e-002 1.09890113e-002 3.66300368e-003 2.56410260e-002 0.
      0. 3.66300368e-003 2.56410260e-002 1.09890113e-002 1.83150191e-002
      3.66300368e-003 0. 9.15750936e-002 3.66300368e-003 8.05860832e-002
      4.02930416e-002 4.76190485e-002 7.32600736e-003 3.66300368e-003
      4.39560451e-002 0.</_>
    <_>
      1.17187500e-002 3.90625000e-002 8.98437500e-002 1.56250000e-002
      6.25000000e-002 4.68750000e-002 3.90625000e-003 1.56250000e-002
      1.56250000e-002 1.17187500e-002 7.81250000e-003 2.73437500e-002
      1.17187500e-002 1.95312500e-002 1.95312500e-002 3.12500000e-002
      7.03125000e-002 5.07812500e-002 1.56250000e-002 4.29687500e-002
      3.12500000e-002 7.81250000e-003 5.85937500e-002 3.90625000e-003
      1.17187500e-002 1.17187500e-002 3.12500000e-002 1.56250000e-002
      1.95312500e-002 1.17187500e-002 4.68750000e-002 3.90625000e-003
      1.95312500e-002 1.17187500e-002 7.81250000e-003 1.56250000e-002
      5.46875000e-002 2.73437500e-002 0.</_>
    <_>
      1.17187500e-002 3.90625000e-002 8.98437500e-002 1.56250000e-002
      6.25000000e-002 4.68750000e-002 3.90625000e-003 1.56250000e-002
      1.56250000e-002 1.17187500e-002 7.81250000e-003 2.73437500e-002
      1.17187500e-002 1.95312500e-002 1.95312500e-002 3.12500000e-002
      7.03125000e-002 5.07812500e-002 1.56250000e-002 4.29687500e-002
      3.12500000e-002 7.81250000e-003 5.85937500e-002 3.90625000e-003
      1.17187500e-002 1.17187500e-002 3.12500000e-002 1.56250000e-002
      1.95312500e-002 1.17187500e-002 4.68750000e-002 3.90625000e-003
      1.95312500e-002 1.17187500e-002 7.81250000e-003 1.56250000e-002
      5.46875000e-002 2.73437500e-002 0.</_>
    <_>
      1.17187500e-002 3.90625000e-002 8.98437500e-002 1.56250000e-002
      6.25000000e-002 4.68750000e-002 3.90625000e-003 1.56250000e-002
      1.56250000e-002 1.17187500e-002 7.81250000e-003 2.73437500e-002
      1.17187500e-002 1.95312500e-002 1.95312500e-002 3.12500000e-002
      7.03125000e-002 5.07812500e-002 1.56250000e-002 4.29687500e-002
      3.12500000e-002 7.81250000e-003 5.85937500e-002 3.90625000e-003
      1.17187500e-002 1.17187500e-002 3.12500000e-002 1.56250000e-002
      1.95312500e-002 1.17187500e-002 4.68750000e-002 3.90625000e-003
      1.95312500e-002 1.17187500e-002 7.81250000e-003 1.56250000e-002
      5.46875000e-002 2.73437500e-002 0.</_>
    <_>
      1.17187500e-002 3.90625000e-002 8.98437500e-002 1.56250000e-002
      6.25000000e-002 4.68750000e-002 3.90625000e-003 1.56250000e-002
      1.56250000e-002 1.17187500e-002 7.81250000e-003 2.73437500e-002
      1.17187500e-002 1.95312500e-002 1.95312500e-002 3.12500000e-002
      7.03125000e-002 5.07812500e-002 1.56250000e-002 4.29687500e-002
      3.12500000e-002 7.81250000e-003 5.85937500e-002 3.90625000e-003
      1.17187500e-002 1.17187500e-002 3.12500000e-002 1.56250000e-002
      1.95312500e-002 1.17187500e-002 4.68750000e-002 3.90625000e-003
      1.95312500e-002 1.17187500e-002 7.81250000e-003 1.56250000e-002
      5.46875000e-002 2.73437500e-002 0.</_>
    <_>
      1.68918930e-002 1.68918930e-002 2.02702712e-002 1.35135138e-002
      2.02702712e-002 3.04054059e-002 1.01351356e-002 6.41891882e-002
      3.37837846e-003 3.37837846e-003 1.35135138e-002 1.01351356e-002
      4.39189188e-002 5.74324355e-002 3.37837860e-002 1.35135138e-002
      5.40540554e-002 3.04054059e-002 2.36486495e-002 6.08108118e-002
      2.02702712e-002 1.01351356e-002 8.78378376e-002 2.36486495e-002
      4.05405425e-002 1.01351356e-002 3.04054059e-002 1.01351356e-002
      2.02702712e-002 3.37837860e-002 3.37837846e-003 2.02702712e-002
      1.68918930e-002 1.68918930e-002 1.68918930e-002 5.40540554e-002
      1.35135138e-002 3.37837846e-003 2.70270277e-002</_>
    <_>
      1.68918930e-002 1.68918930e-002 2.02702712e-002 1.35135138e-002
      2.02702712e-002 3.04054059e-002 1.01351356e-002 6.41891882e-002
      3.37837846e-003 3.37837846e-003 1.35135138e-002 1.01351356e-002
      4.39189188e-002 5.74324355e-002 3.37837860e-002 1.35135138e-002
      5.40540554e-002 3.04054059e-002 2.36486495e-002 6.08108118e-002
      2.02702712e-002 1.01351356e-002 8.78378376e-002 2.36486495e-002
      4.05405425e-002 1.01351356e-002 3.04054059e-002 1.01351356e-002
      2.02702712e-002 3.37837860e-002 3.37837846e-003 2.02702712e-002
      1.68918930e-002 1.68918930e-002 1.68918930e-002 5.40540554e-002
      1.35135138e-002 3.37837846e-003 2.70270277e-002</_>
    <_>
      1.68918930e-002 1.68918930e-002 2.02702712e-002 1.35135138e-002
      2.02702712e-002 3.04054059e-002 1.01351356e-002 6.41891882e-002
      3.37837846e-003 3.37837846e-003 1.35135138e-002 1.01351356e-002
      4.39189188e-002 5.74324355e-002 3.37837860e-002 1.35135138e-002
      5.40540554e-002 3.04054059e-002 2.36486495e-002 6.08108118e-002
      2.02702712e-002 1.01351356e-002 8.78378376e-002 2.36486495e-002
      4.05405425e-002 1.01351356e-002 3.04054059e-002 1.01351356e-002
      2.02702712e-002 3.37837860e-002 3.37837846e-003 2.02702712e-002
      1.68918930e-002 1.68918930e-002 1.68918930e-002 5.40540554e-002
      1.35135138e-002 3.37837846e-003 2.70270277e-002</_>
    <_>
      1.68918930e-002 1.68918930e-002 2.02702712e-002 1.35135138e-002
      2.02702712e-002 3.04054059e-002 1.01351356e-002 6.41891882e-002
      3.37837846e-003 3.37837846e-003 1.35135138e-002 1.01351356e-002
      4.39189188e-002 5.74324355e-002 3.37837860e-002 1.35135138e-002
      5.40540554e-002 3.04054059e-002 2.36486495e-002 6.08108118e-002
      2.02702712e-002 1.01351356e-002 8.78378376e-002 2.36486495e-002
      4.05405425e-002 1.01351356e-002 3.04054059e-002 1.01351356e-002
      2.02702712e-002 3.37837860e-002 3.37837846e-003 2.02702712e-002
      1.68918930e-002 1.68918930e-002 1.68918930e-002 5.40540554e-002
      1.35135138e-002 3.37837846e-003 2.70270277e-002</_>
    <_>
      6.60066027e-003 1.98019817e-002 4.62046228e-002 3.30033004e-002
      2.64026411e-002 1.65016502e-002 9.90099087e-003 6.60066027e-003
      7.92079270e-002 1.98019817e-002 1.65016502e-002 7.92079270e-002
      3.30033014e-003 9.90099087e-003 2.31023114e-002 2.97029708e-002
      1.32013205e-002 2.97029708e-002 2.31023114e-002 1.32013205e-002
      1.65016502e-002 2.97029708e-002 9.90099087e-003 7.26072639e-002
      6.60066027e-003 3.96039635e-002 2.31023114e-002 2.31023114e-002
      2.31023114e-002 1.65016502e-002 5.61056137e-002 2.31023114e-002
      4.29042913e-002 3.30033004e-002 1.65016502e-002 1.65016502e-002
      6.60066027e-003 3.30033004e-002 6.60066027e-003</_>
    <_>
      6.60066027e-003 1.98019817e-002 4.62046228e-002 3.30033004e-002
      2.64026411e-002 1.65016502e-002 9.90099087e-003 6.60066027e-003
      7.92079270e-002 1.98019817e-002 1.65016502e-002 7.92079270e-002
      3.30033014e-003 9.90099087e-003 2.31023114e-002 2.97029708e-002
      1.32013205e-002 2.97029708e-002 2.31023114e-002 1.32013205e-002
      1.65016502e-002 2.97029708e-002 9.90099087e-003 7.26072639e-002
      6.60066027e-003 3.96039635e-002 2.31023114e-002 2.31023114e-002
      2.31023114e-002 1.65016502e-002 5.61056137e-002 2.31023114e-002
      4.29042913e-002 3.30033004e-002 1.65016502e-002 1.65016502e-002
      6.60066027e-003 3.30033004e-002 6.60066027e-003</_>
    <_>
      6.60066027e-003 1.98019817e-002 4.62046228e-002 3.30033004e-002
      2.64026411e-002 1.65016502e-002 9.90099087e-003 6.60066027e-003
      7.92079270e-002 1.98019817e-002 1.65016502e-002 7.92079270e-002
      3.30033014e-003 9.90099087e-003 2.31023114e-002 2.97029708e-002
      1.32013205e-002 2.97029708e-002 2.31023114e-002 1.32013205e-002
      1.65016502e-002 2.97029708e-002 9.90099087e-003 7.26072639e-002
      6.60066027e-003 3.96039635e-002 2.31023114e-002 2.31023114e-002
      2.31023114e-002 1.65016502e-002 5.61056137e-002 2.31023114e-002
      4.29042913e-002 3.30033004e-002 1.65016502e-002 1.65016502e-002
      6.60066027e-003 3.30033004e-002 6.60066027e-003</_>
    <_>
      6.60066027e-003 1.98019817e-002 4.62046228e-002 3.30033004e-002
      2.64026411e-002 1.65016502e-002 9.90099087e-003 6.60066027e-003
      7.92079270e-002 1.98019817e-002 1.65016502e-002 7.92079270e-002
      3.30033014e-003 9.90099087e-003 2.31023114e-002 2.97029708e-002
      1.32013205e-002 2.97029708e-002 2.31023114e-002 1.32013205e-002
      1.65016502e-002 2.97029708e-002 9.90099087e-003 7.26072639e-002
      6.60066027e-003 3.96039635e-002 2.31023114e-002 2.31023114e-002
      2.31023114e-002 1.65016502e-002 5.61056137e-002 2.31023114e-002
      4.29042913e-002 3.30033004e-002 1.65016502e-002 1.65016502e-002
      6.60066027e-003 3.30033004e-002 6.60066027e-003</_>
    <_>
      2.04778146e-002 5.46075068e-002 1.36518767e-002 7.84982890e-002
      1.70648452e-002 5.80204763e-002 5.11945374e-002 1.36518767e-002
      6.82593836e-003 0. 2.38907840e-002 2.38907840e-002 2.04778146e-002
      2.73037534e-002 1.36518767e-002 6.14334457e-002 4.77815680e-002
      2.38907840e-002 1.70648452e-002 5.11945374e-002 2.73037534e-002
      1.02389073e-002 2.04778146e-002 1.36518767e-002 3.41296904e-002 0.
      4.43685986e-002 1.36518767e-002 4.09556292e-002 1.36518767e-002
      3.41296904e-002 3.41296918e-003 2.04778146e-002 3.41296918e-003
      2.38907840e-002 2.04778146e-002 2.04778146e-002 6.82593836e-003
      2.38907840e-002</_>
    <_>
      2.04778146e-002 5.46075068e-002 1.36518767e-002 7.84982890e-002
      1.70648452e-002 5.80204763e-002 5.11945374e-002 1.36518767e-002
      6.82593836e-003 0. 2.38907840e-002 2.38907840e-002 2.04778146e-002
      2.73037534e-002 1.36518767e-002 6.14334457e-002 4.77815680e-002
      2.38907840e-002 1.70648452e-002 5.11945374e-002 2.73037534e-002
      1.02389073e-002 2.04778146e-002 1.36518767e-002 3.41296904e-002 0.
      4.43685986e-002 1.36518767e-002 4.09556292e-002 1.36518767e-002
      3.41296904e-002 3.41296918e-003 2.04778146e-002 3.41296918e-003
      2.38907840e-002 2.04778146e-002 2.04778146e-002 6.82593836e-003
      2.38907840e-002</_>
    <_>
      2.04778146e-002 5.46075068e-002 1.36518767e-002 7.84982890e-002
      1.70648452e-002 5.80204763e-002 5.11945374e-002 1.36518767e-002
      6.82593836e-003 0. 2.38907840e-002 2.38907840e-002 2.04778146e-002
      2.73037534e-002 1.36518767e-002 6.14334457e-002 4.77815680e-002
      2.38907840e-002 1.70648452e-002 5.11945374e-002 2.73037534e-002
      1.02389073e-002 2.04778146e-002 1.36518767e-002 3.41296904e-002 0.
      4.43685986e-002 1.36518767e-002 4.09556292e-002 1.36518767e-002
      3.41296904e-002 3.41296918e-003 2.04778146e-002 3.41296918e-003
      2.38907840e-002 2.04778146e-002 2.04778146e-002 6.82593836e-003
      2.38907840e-002</_>
    <_>
      2.04778146e-002 5.46075068e-002 1.36518767e-002 7.84982890e-002
      1.70648452e-002 5.80204763e-002 5.11945374e-002 1.36518767e-002
      6.82593836e-003 0. 2.38907840e-002 2.38907840e-002 2.04778146e-002
      2.73037534e-002 1.36518767e-002 6.14334457e-002 4.77815680e-002
      2.38907840e-002 1.70648452e-002 5.11945374e-002 2.73037534e-002
      1.02389073e-002 2.04778146e-002 1.36518767e-002 3.41296904e-002 0.
      4.43685986e-002 1.36518767e-002 4.09556292e-002 1.36518767e-002
      3.41296904e-002 3.41296918e-003 2.04778146e-002 3.41296918e-003
      2.38907840e-002 2.04778146e-002 2.04778146e-002 6.82593836e-003
      2.38907840e-002</_>
    <_>
      1.98019817e-002 7.42574260e-002 2.14521457e-002 5.77557757e-002
      7.42574260e-002 1.23762377e-001 1.15511557e-002 4.95049544e-003
      2.80528069e-002 4.95049544e-003 1.32013205e-002 3.46534662e-002
      3.30033004e-002 1.65016502e-002 2.97029708e-002 1.81518160e-002
      9.90099087e-003 8.25082511e-003 3.30033004e-002 3.13531347e-002
      2.97029708e-002 2.97029708e-002 2.47524753e-002 2.31023114e-002
      3.30033014e-003 8.25082511e-003 2.47524753e-002 1.65016502e-002
      3.30033014e-003 8.25082511e-003 1.65016502e-002 4.95049544e-003
      8.25082511e-003 6.60066027e-003 3.30033004e-002 1.65016502e-002
      4.62046228e-002 3.30033004e-002 1.48514854e-002</_>
    <_>
      1.98019817e-002 7.42574260e-002 2.14521457e-002 5.77557757e-002
      7.42574260e-002 1.23762377e-001 1.15511557e-002 4.95049544e-003
      2.80528069e-002 4.95049544e-003 1.32013205e-002 3.46534662e-002
      3.30033004e-002 1.65016502e-002 2.97029708e-002 1.81518160e-002
      9.90099087e-003 8.25082511e-003 3.30033004e-002 3.13531347e-002
      2.97029708e-002 2.97029708e-002 2.47524753e-002 2.31023114e-002
      3.30033014e-003 8.25082511e-003 2.47524753e-002 1.65016502e-002
      3.30033014e-003 8.25082511e-003 1.65016502e-002 4.95049544e-003
      8.25082511e-003 6.60066027e-003 3.30033004e-002 1.65016502e-002
      4.62046228e-002 3.30033004e-002 1.48514854e-002</_>
    <_>
      1.98019817e-002 7.42574260e-002 2.14521457e-002 5.77557757e-002
      7.42574260e-002 1.23762377e-001 1.15511557e-002 4.95049544e-003
      2.80528069e-002 4.95049544e-003 1.32013205e-002 3.46534662e-002
      3.30033004e-002 1.65016502e-002 2.97029708e-002 1.81518160e-002
      9.90099087e-003 8.25082511e-003 3.30033004e-002 3.13531347e-002
      2.97029708e-002 2.97029708e-002 2.47524753e-002 2.31023114e-002
      3.30033014e-003 8.25082511e-003 2.47524753e-002 1.65016502e-002
      3.30033014e-003 8.25082511e-003 1.65016502e-002 4.95049544e-003
      8.25082511e-003 6.60066027e-003 3.30033004e-002 1.65016502e-002
      4.62046228e-002 3.30033004e-002 1.48514854e-002</_>
    <_>
      1.98019817e-002 7.42574260e-002 2.14521457e-002 5.77557757e-002
      7.42574260e-002 1.23762377e-001 1.15511557e-002 4.95049544e-003
      2.80528069e-002 4.95049544e-003 1.32013205e-002 3.46534662e-002
      3.30033004e-002 1.65016502e-002 2.97029708e-002 1.81518160e-002
      9.90099087e-003 8.25082511e-003 3.30033004e-002 3.13531347e-002
      2.97029708e-002 2.97029708e-002 2.47524753e-002 2.31023114e-002
      3.30033014e-003 8.25082511e-003 2.47524753e-002 1.65016502e-002
      3.30033014e-003 8.25082511e-003 1.65016502e-002 4.95049544e-003
      8.25082511e-003 6.60066027e-003 3.30033004e-002 1.65016502e-002
      4.62046228e-002 3.30033004e-002 1.48514854e-002</_>
    <_>
      2.23713648e-002 4.02684584e-002 6.71140943e-003 2.46085003e-002
      4.92170006e-002 2.46085003e-002 1.56599544e-002 2.01342292e-002
      6.71140943e-003 0. 1.11856824e-002 3.57941836e-002 4.25055921e-002
      2.01342292e-002 2.23713648e-002 1.11856824e-002 7.15883672e-002
      3.13199088e-002 7.15883672e-002 6.48769587e-002 2.68456377e-002
      1.11856824e-002 2.23713648e-002 2.68456377e-002 4.47427295e-003
      4.47427295e-003 4.92170006e-002 2.46085003e-002 1.11856824e-002
      2.23713648e-003 4.92170006e-002 4.47427295e-003 2.90827751e-002
      4.47427295e-003 1.56599544e-002 2.68456377e-002 5.59284128e-002
      6.71140943e-003 3.13199088e-002</_>
    <_>
      2.23713648e-002 4.02684584e-002 6.71140943e-003 2.46085003e-002
      4.92170006e-002 2.46085003e-002 1.56599544e-002 2.01342292e-002
      6.71140943e-003 0. 1.11856824e-002 3.57941836e-002 4.25055921e-002
      2.01342292e-002 2.23713648e-002 1.11856824e-002 7.15883672e-002
      3.13199088e-002 7.15883672e-002 6.48769587e-002 2.68456377e-002
      1.11856824e-002 2.23713648e-002 2.68456377e-002 4.47427295e-003
      4.47427295e-003 4.92170006e-002 2.46085003e-002 1.11856824e-002
      2.23713648e-003 4.92170006e-002 4.47427295e-003 2.90827751e-002
      4.47427295e-003 1.56599544e-002 2.68456377e-002 5.59284128e-002
      6.71140943e-003 3.13199088e-002</_>
    <_>
      2.23713648e-002 4.02684584e-002 6.71140943e-003 2.46085003e-002
      4.92170006e-002 2.46085003e-002 1.56599544e-002 2.01342292e-002
      6.71140943e-003 0. 1.11856824e-002 3.57941836e-002 4.25055921e-002
      2.01342292e-002 2.23713648e-002 1.11856824e-002 7.15883672e-002
      3.13199088e-002 7.15883672e-002 6.48769587e-002 2.68456377e-002
      1.11856824e-002 2.23713648e-002 2.68456377e-002 4.47427295e-003
      4.47427295e-003 4.92170006e-002 2.46085003e-002 1.11856824e-002
      2.23713648e-003 4.92170006e-002 4.47427295e-003 2.90827751e-002
      4.47427295e-003 1.56599544e-002 2.68456377e-002 5.59284128e-002
      6.71140943e-003 3.13199088e-002</_>
    <_>
      2.23713648e-002 4.02684584e-002 6.71140943e-003 2.46085003e-002
      4.92170006e-002 2.46085003e-002 1.56599544e-002 2.01342292e-002
      6.71140943e-003 0. 1.11856824e-002 3.57941836e-002 4.25055921e-002
      2.01342292e-002 2.23713648e-002 1.11856824e-002 7.15883672e-002
      3.13199088e-002 7.15883672e-002 6.48769587e-002 2.68456377e-002
      1.11856824e-002 2.23713648e-002 2.68456377e-002 4.47427295e-003
      4.47427295e-003 4.92170006e-002 2.46085003e-002 1.11856824e-002
      2.23713648e-003 4.92170006e-002 4.47427295e-003 2.90827751e-002
      4.47427295e-003 1.56599544e-002 2.68456377e-002 5.59284128e-002
      6.71140943e-003 3.13199088e-002</_>
    <_>
      2.58620679e-002 4.65517230e-002 6.37931004e-002 1.20689655e-002
      6.89655170e-002 3.62068973e-002 8.62068962e-003 6.89655170e-003
      1.06896549e-001 2.41379309e-002 1.55172413e-002 1.37931034e-002
      2.41379309e-002 1.37931034e-002 1.89655162e-002 1.72413792e-002
      2.24137940e-002 1.89655162e-002 4.48275879e-002 3.96551713e-002
      1.72413792e-002 1.89655162e-002 2.93103456e-002 1.03448275e-002
      1.03448275e-002 2.24137940e-002 3.44827585e-002 1.20689655e-002
      1.37931034e-002 1.37931034e-002 1.55172413e-002 2.93103456e-002
      4.48275879e-002 6.89655170e-003 1.55172413e-002 1.55172413e-002
      1.89655162e-002 3.62068973e-002 5.17241377e-003</_>
    <_>
      2.58620679e-002 4.65517230e-002 6.37931004e-002 1.20689655e-002
      6.89655170e-002 3.62068973e-002 8.62068962e-003 6.89655170e-003
      1.06896549e-001 2.41379309e-002 1.55172413e-002 1.37931034e-002
      2.41379309e-002 1.37931034e-002 1.89655162e-002 1.72413792e-002
      2.24137940e-002 1.89655162e-002 4.48275879e-002 3.96551713e-002
      1.72413792e-002 1.89655162e-002 2.93103456e-002 1.03448275e-002
      1.03448275e-002 2.24137940e-002 3.44827585e-002 1.20689655e-002
      1.37931034e-002 1.37931034e-002 1.55172413e-002 2.93103456e-002
      4.48275879e-002 6.89655170e-003 1.55172413e-002 1.55172413e-002
      1.89655162e-002 3.62068973e-002 5.17241377e-003</_>
    <_>
      2.58620679e-002 4.65517230e-002 6.37931004e-002 1.20689655e-002
      6.89655170e-002 3.62068973e-002 8.62068962e-003 6.89655170e-003
      1.06896549e-001 2.41379309e-002 1.55172413e-002 1.37931034e-002
      2.41379309e-002 1.37931034e-002 1.89655162e-002 1.72413792e-002
      2.24137940e-002 1.89655162e-002 4.48275879e-002 3.96551713e-002
      1.72413792e-002 1.89655162e-002 2.93103456e-002 1.03448275e-002
      1.03448275e-002 2.24137940e-002 3.44827585e-002 1.20689655e-002
      1.37931034e-002 1.37931034e-002 1.55172413e-002 2.93103456e-002
      4.48275879e-002 6.89655170e-003 1.55172413e-002 1.55172413e-002
      1.89655162e-002 3.62068973e-002 5.17241377e-003</_>
    <_>
      2.58620679e-002 4.65517230e-002 6.37931004e-002 1.20689655e-002
      6.89655170e-002 3.62068973e-002 8.62068962e-003 6.89655170e-003
      1.06896549e-001 2.41379309e-002 1.55172413e-002 1.37931034e-002
      2.41379309e-002 1.37931034e-002 1.89655162e-002 1.72413792e-002
      2.24137940e-002 1.89655162e-002 4.48275879e-002 3.96551713e-002
      1.72413792e-002 1.89655162e-002 2.93103456e-002 1.03448275e-002
      1.03448275e-002 2.24137940e-002 3.44827585e-002 1.20689655e-002
      1.37931034e-002 1.37931034e-002 1.55172413e-002 2.93103456e-002
      4.48275879e-002 6.89655170e-003 1.55172413e-002 1.55172413e-002
      1.89655162e-002 3.62068973e-002 5.17241377e-003</_>
    <_>
      4.86618001e-003 4.86617982e-002 1.70316305e-002 9.24574211e-002
      2.67639905e-002 4.62287106e-002 1.94647200e-002 9.73236002e-003
      2.43308991e-002 0. 1.70316305e-002 3.89294401e-002 2.91970801e-002
      1.21654496e-002 2.18978096e-002 2.91970801e-002 2.67639905e-002
      2.18978096e-002 3.64963487e-002 4.13625315e-002 3.16301696e-002
      3.40632610e-002 2.91970801e-002 1.21654496e-002 3.89294401e-002
      4.86618001e-003 4.86617982e-002 3.89294401e-002 1.94647200e-002
      1.21654496e-002 9.73236002e-003 2.43309001e-003 4.86618001e-003
      2.43309001e-003 2.67639905e-002 3.40632610e-002 4.62287106e-002
      7.29927002e-003 3.16301696e-002</_>
    <_>
      4.86618001e-003 4.86617982e-002 1.70316305e-002 9.24574211e-002
      2.67639905e-002 4.62287106e-002 1.94647200e-002 9.73236002e-003
      2.43308991e-002 0. 1.70316305e-002 3.89294401e-002 2.91970801e-002
      1.21654496e-002 2.18978096e-002 2.91970801e-002 2.67639905e-002
      2.18978096e-002 3.64963487e-002 4.13625315e-002 3.16301696e-002
      3.40632610e-002 2.91970801e-002 1.21654496e-002 3.89294401e-002
      4.86618001e-003 4.86617982e-002 3.89294401e-002 1.94647200e-002
      1.21654496e-002 9.73236002e-003 2.43309001e-003 4.86618001e-003
      2.43309001e-003 2.67639905e-002 3.40632610e-002 4.62287106e-002
      7.29927002e-003 3.16301696e-002</_>
    <_>
      4.86618001e-003 4.86617982e-002 1.70316305e-002 9.24574211e-002
      2.67639905e-002 4.62287106e-002 1.94647200e-002 9.73236002e-003
      2.43308991e-002 0. 1.70316305e-002 3.89294401e-002 2.91970801e-002
      1.21654496e-002 2.18978096e-002 2.91970801e-002 2.67639905e-002
      2.18978096e-002 3.64963487e-002 4.13625315e-002 3.16301696e-002
      3.40632610e-002 2.91970801e-002 1.21654496e-002 3.89294401e-002
      4.86618001e-003 4.86617982e-002 3.89294401e-002 1.94647200e-002
      1.21654496e-002 9.73236002e-003 2.43309001e-003 4.86618001e-003
      2.43309001e-003 2.67639905e-002 3.40632610e-002 4.62287106e-002
      7.29927002e-003 3.16301696e-002</_>
    <_>
      4.86618001e-003 4.86617982e-002 1.70316305e-002 9.24574211e-002
      2.67639905e-002 4.62287106e-002 1.94647200e-002 9.73236002e-003
      2.43308991e-002 0. 1.70316305e-002 3.89294401e-002 2.91970801e-002
      1.21654496e-002 2.18978096e-002 2.91970801e-002 2.67639905e-002
      2.18978096e-002 3.64963487e-002 4.13625315e-002 3.16301696e-002
      3.40632610e-002 2.91970801e-002 1.21654496e-002 3.89294401e-002
      4.86618001e-003 4.86617982e-002 3.89294401e-002 1.94647200e-002
      1.21654496e-002 9.73236002e-003 2.43309001e-003 4.86618001e-003
      2.43309001e-003 2.67639905e-002 3.40632610e-002 4.62287106e-002
      7.29927002e-003 3.16301696e-002</_>
    <_>
      3.34448144e-002 2.50836127e-002 2.67558526e-002 2.34113708e-002
      2.00668890e-002 3.51170562e-002 3.17725763e-002 3.34448144e-002
      1.17056854e-002 1.67224079e-003 8.36120360e-003 3.17725763e-002
      8.52842778e-002 4.18060198e-002 2.17391308e-002 2.67558526e-002
      3.17725763e-002 6.85618743e-002 4.68227416e-002 3.67892981e-002
      3.34448144e-002 1.33779263e-002 4.51504998e-002 8.36120360e-003
      6.68896316e-003 6.68896316e-003 3.17725763e-002 1.17056854e-002
      1.50501672e-002 2.67558526e-002 5.01672225e-003 1.67224079e-003
      8.36120360e-003 6.68896316e-003 1.50501672e-002 4.01337780e-002
      3.51170562e-002 1.17056854e-002 3.51170562e-002</_>
    <_>
      3.34448144e-002 2.50836127e-002 2.67558526e-002 2.34113708e-002
      2.00668890e-002 3.51170562e-002 3.17725763e-002 3.34448144e-002
      1.17056854e-002 1.67224079e-003 8.36120360e-003 3.17725763e-002
      8.52842778e-002 4.18060198e-002 2.17391308e-002 2.67558526e-002
      3.17725763e-002 6.85618743e-002 4.68227416e-002 3.67892981e-002
      3.34448144e-002 1.33779263e-002 4.51504998e-002 8.36120360e-003
      6.68896316e-003 6.68896316e-003 3.17725763e-002 1.17056854e-002
      1.50501672e-002 2.67558526e-002 5.01672225e-003 1.67224079e-003
      8.36120360e-003 6.68896316e-003 1.50501672e-002 4.01337780e-002
      3.51170562e-002 1.17056854e-002 3.51170562e-002</_>
    <_>
      3.34448144e-002 2.50836127e-002 2.67558526e-002 2.34113708e-002
      2.00668890e-002 3.51170562e-002 3.17725763e-002 3.34448144e-002
      1.17056854e-002 1.67224079e-003 8.36120360e-003 3.17725763e-002
      8.52842778e-002 4.18060198e-002 2.17391308e-002 2.67558526e-002
      3.17725763e-002 6.85618743e-002 4.68227416e-002 3.67892981e-002
      3.34448144e-002 1.33779263e-002 4.51504998e-002 8.36120360e-003
      6.68896316e-003 6.68896316e-003 3.17725763e-002 1.17056854e-002
      1.50501672e-002 2.67558526e-002 5.01672225e-003 1.67224079e-003
      8.36120360e-003 6.68896316e-003 1.50501672e-002 4.01337780e-002
      3.51170562e-002 1.17056854e-002 3.51170562e-002</_>
    <_>
      3.34448144e-002 2.50836127e-002 2.67558526e-002 2.34113708e-002
      2.00668890e-002 3.51170562e-002 3.17725763e-002 3.34448144e-002
      1.17056854e-002 1.67224079e-003 8.36120360e-003 3.17725763e-002
      8.52842778e-002 4.18060198e-002 2.17391308e-002 2.67558526e-002
      3.17725763e-002 6.85618743e-002 4.68227416e-002 3.67892981e-002
      3.34448144e-002 1.33779263e-002 4.51504998e-002 8.36120360e-003
      6.68896316e-003 6.68896316e-003 3.17725763e-002 1.17056854e-002
      1.50501672e-002 2.67558526e-002 5.01672225e-003 1.67224079e-003
      8.36120360e-003 6.68896316e-003 1.50501672e-002 4.01337780e-002
      3.51170562e-002 1.17056854e-002 3.51170562e-002</_>
    <_>
      6.56455150e-003 2.84463894e-002 2.40700226e-002 3.93873081e-002
      1.20350108e-001 4.15754914e-002 2.62582060e-002 2.84463894e-002
      1.53172873e-002 0. 1.96936540e-002 3.93873081e-002 1.75054707e-002
      4.15754914e-002 3.50109413e-002 1.75054707e-002 2.18818374e-002
      1.75054707e-002 3.28227580e-002 1.53172873e-002 4.15754914e-002
      2.84463894e-002 2.84463894e-002 2.84463894e-002 1.96936540e-002
      8.75273533e-003 4.15754914e-002 2.18818374e-002 8.75273533e-003
      4.59518619e-002 1.09409187e-002 0. 1.09409187e-002 8.75273533e-003
      1.53172873e-002 3.28227580e-002 4.15754914e-002 6.56455150e-003
      1.09409187e-002</_>
    <_>
      6.56455150e-003 2.84463894e-002 2.40700226e-002 3.93873081e-002
      1.20350108e-001 4.15754914e-002 2.62582060e-002 2.84463894e-002
      1.53172873e-002 0. 1.96936540e-002 3.93873081e-002 1.75054707e-002
      4.15754914e-002 3.50109413e-002 1.75054707e-002 2.18818374e-002
      1.75054707e-002 3.28227580e-002 1.53172873e-002 4.15754914e-002
      2.84463894e-002 2.84463894e-002 2.84463894e-002 1.96936540e-002
      8.75273533e-003 4.15754914e-002 2.18818374e-002 8.75273533e-003
      4.59518619e-002 1.09409187e-002 0. 1.09409187e-002 8.75273533e-003
      1.53172873e-002 3.28227580e-002 4.15754914e-002 6.56455150e-003
      1.09409187e-002</_>
    <_>
      6.56455150e-003 2.84463894e-002 2.40700226e-002 3.93873081e-002
      1.20350108e-001 4.15754914e-002 2.62582060e-002 2.84463894e-002
      1.53172873e-002 0. 1.96936540e-002 3.93873081e-002 1.75054707e-002
      4.15754914e-002 3.50109413e-002 1.75054707e-002 2.18818374e-002
      1.75054707e-002 3.28227580e-002 1.53172873e-002 4.15754914e-002
      2.84463894e-002 2.84463894e-002 2.84463894e-002 1.96936540e-002
      8.75273533e-003 4.15754914e-002 2.18818374e-002 8.75273533e-003
      4.59518619e-002 1.09409187e-002 0. 1.09409187e-002 8.75273533e-003
      1.53172873e-002 3.28227580e-002 4.15754914e-002 6.56455150e-003
      1.09409187e-002</_>
    <_>
      6.56455150e-003 2.84463894e-002 2.40700226e-002 3.93873081e-002
      1.20350108e-001 4.15754914e-002 2.62582060e-002 2.84463894e-002
      1.53172873e-002 0. 1.96936540e-002 3.93873081e-002 1.75054707e-002
      4.15754914e-002 3.50109413e-002 1.75054707e-002 2.18818374e-002
      1.75054707e-002 3.28227580e-002 1.53172873e-002 4.15754914e-002
      2.84463894e-002 2.84463894e-002 2.84463894e-002 1.96936540e-002
      8.75273533e-003 4.15754914e-002 2.18818374e-002 8.75273533e-003
      4.59518619e-002 1.09409187e-002 0. 1.09409187e-002 8.75273533e-003
      1.53172873e-002 3.28227580e-002 4.15754914e-002 6.56455150e-003
      1.09409187e-002</_>
    <_>
      1.37362638e-002 3.02197803e-002 9.06593427e-002 3.57142873e-002
      1.09890113e-002 6.31868169e-002 5.49450563e-003 2.74725282e-003
      2.47252751e-002 5.76923080e-002 8.24175868e-003 2.74725282e-003
      1.64835174e-002 2.47252751e-002 1.37362638e-002 3.02197803e-002
      8.24175868e-003 3.02197803e-002 7.41758272e-002 8.24175868e-003
      1.64835174e-002 4.94505502e-002 1.64835174e-002 0. 2.74725282e-003
      4.67032976e-002 1.09890113e-002 8.24175868e-003 1.92307699e-002
      5.49450563e-003 2.74725277e-002 2.19780225e-002 5.49450554e-002
      5.21978028e-002 3.57142873e-002 8.24175868e-003 8.24175868e-003
      6.31868169e-002 0.</_>
    <_>
      1.37362638e-002 3.02197803e-002 9.06593427e-002 3.57142873e-002
      1.09890113e-002 6.31868169e-002 5.49450563e-003 2.74725282e-003
      2.47252751e-002 5.76923080e-002 8.24175868e-003 2.74725282e-003
      1.64835174e-002 2.47252751e-002 1.37362638e-002 3.02197803e-002
      8.24175868e-003 3.02197803e-002 7.41758272e-002 8.24175868e-003
      1.64835174e-002 4.94505502e-002 1.64835174e-002 0. 2.74725282e-003
      4.67032976e-002 1.09890113e-002 8.24175868e-003 1.92307699e-002
      5.49450563e-003 2.74725277e-002 2.19780225e-002 5.49450554e-002
      5.21978028e-002 3.57142873e-002 8.24175868e-003 8.24175868e-003
      6.31868169e-002 0.</_>
    <_>
      1.37362638e-002 3.02197803e-002 9.06593427e-002 3.57142873e-002
      1.09890113e-002 6.31868169e-002 5.49450563e-003 2.74725282e-003
      2.47252751e-002 5.76923080e-002 8.24175868e-003 2.74725282e-003
      1.64835174e-002 2.47252751e-002 1.37362638e-002 3.02197803e-002
      8.24175868e-003 3.02197803e-002 7.41758272e-002 8.24175868e-003
      1.64835174e-002 4.94505502e-002 1.64835174e-002 0. 2.74725282e-003
      4.67032976e-002 1.09890113e-002 8.24175868e-003 1.92307699e-002
      5.49450563e-003 2.74725277e-002 2.19780225e-002 5.49450554e-002
      5.21978028e-002 3.57142873e-002 8.24175868e-003 8.24175868e-003
      6.31868169e-002 0.</_>
    <_>
      1.37362638e-002 3.02197803e-002 9.06593427e-002 3.57142873e-002
      1.09890113e-002 6.31868169e-002 5.49450563e-003 2.74725282e-003
      2.47252751e-002 5.76923080e-002 8.24175868e-003 2.74725282e-003
      1.64835174e-002 2.47252751e-002 1.37362638e-002 3.02197803e-002
      8.24175868e-003 3.02197803e-002 7.41758272e-002 8.24175868e-003
      1.64835174e-002 4.94505502e-002 1.64835174e-002 0. 2.74725282e-003
      4.67032976e-002 1.09890113e-002 8.24175868e-003 1.92307699e-002
      5.49450563e-003 2.74725277e-002 2.19780225e-002 5.49450554e-002
      5.21978028e-002 3.57142873e-002 8.24175868e-003 8.24175868e-003
      6.31868169e-002 0.</_>
    <_>
      1.57480314e-002 3.14960629e-002 2.36220472e-002 3.62204723e-002
      1.88976377e-002 5.03937006e-002 1.88976377e-002 2.04724409e-002
      2.04724409e-002 4.72440943e-003 5.51181100e-002 2.04724409e-002
      1.73228346e-002 2.20472440e-002 2.51968503e-002 1.25984251e-002
      2.51968503e-002 3.30708660e-002 2.83464566e-002 2.04724409e-002
      2.20472440e-002 2.99212597e-002 5.19685037e-002 1.73228346e-002
      5.82677163e-002 2.67716534e-002 2.20472440e-002 2.51968503e-002
      5.66929132e-002 1.41732283e-002 1.57480314e-002 1.88976377e-002
      1.41732283e-002 1.41732283e-002 1.73228346e-002 1.73228346e-002
      3.62204723e-002 1.57480314e-002 2.51968503e-002</_>
    <_>
      1.57480314e-002 3.14960629e-002 2.36220472e-002 3.62204723e-002
      1.88976377e-002 5.03937006e-002 1.88976377e-002 2.04724409e-002
      2.04724409e-002 4.72440943e-003 5.51181100e-002 2.04724409e-002
      1.73228346e-002 2.20472440e-002 2.51968503e-002 1.25984251e-002
      2.51968503e-002 3.30708660e-002 2.83464566e-002 2.04724409e-002
      2.20472440e-002 2.99212597e-002 5.19685037e-002 1.73228346e-002
      5.82677163e-002 2.67716534e-002 2.20472440e-002 2.51968503e-002
      5.66929132e-002 1.41732283e-002 1.57480314e-002 1.88976377e-002
      1.41732283e-002 1.41732283e-002 1.73228346e-002 1.73228346e-002
      3.62204723e-002 1.57480314e-002 2.51968503e-002</_>
    <_>
      1.57480314e-002 3.14960629e-002 2.36220472e-002 3.62204723e-002
      1.88976377e-002 5.03937006e-002 1.88976377e-002 2.04724409e-002
      2.04724409e-002 4.72440943e-003 5.51181100e-002 2.04724409e-002
      1.73228346e-002 2.20472440e-002 2.51968503e-002 1.25984251e-002
      2.51968503e-002 3.30708660e-002 2.83464566e-002 2.04724409e-002
      2.20472440e-002 2.99212597e-002 5.19685037e-002 1.73228346e-002
      5.82677163e-002 2.67716534e-002 2.20472440e-002 2.51968503e-002
      5.66929132e-002 1.41732283e-002 1.57480314e-002 1.88976377e-002
      1.41732283e-002 1.41732283e-002 1.73228346e-002 1.73228346e-002
      3.62204723e-002 1.57480314e-002 2.51968503e-002</_>
    <_>
      1.57480314e-002 3.14960629e-002 2.36220472e-002 3.62204723e-002
      1.88976377e-002 5.03937006e-002 1.88976377e-002 2.04724409e-002
      2.04724409e-002 4.72440943e-003 5.51181100e-002 2.04724409e-002
      1.73228346e-002 2.20472440e-002 2.51968503e-002 1.25984251e-002
      2.51968503e-002 3.30708660e-002 2.83464566e-002 2.04724409e-002
      2.20472440e-002 2.99212597e-002 5.19685037e-002 1.73228346e-002
      5.82677163e-002 2.67716534e-002 2.20472440e-002 2.51968503e-002
      5.66929132e-002 1.41732283e-002 1.57480314e-002 1.88976377e-002
      1.41732283e-002 1.41732283e-002 1.73228346e-002 1.73228346e-002
      3.62204723e-002 1.57480314e-002 2.51968503e-002</_>
    <_>
      1.20300753e-002 2.25563906e-002 2.85714287e-002 4.21052650e-002
      5.41353375e-002 3.00751887e-002 6.16541356e-002 3.15789469e-002
      4.36090231e-002 2.85714287e-002 1.65413544e-002 4.66165431e-002
      1.35338344e-002 1.80451125e-002 3.60902250e-002 2.10526325e-002
      1.35338344e-002 3.30827087e-002 3.00751887e-002 1.95488725e-002
      3.00751887e-002 2.40601506e-002 1.20300753e-002 3.75939868e-002
      7.96992481e-002 0. 3.15789469e-002 1.20300753e-002 7.51879718e-003
      1.35338344e-002 1.35338344e-002 4.51127812e-003 9.02255625e-003 0.
      6.01503765e-003 3.90977450e-002 3.60902250e-002 1.20300753e-002
      2.85714287e-002</_>
    <_>
      1.20300753e-002 2.25563906e-002 2.85714287e-002 4.21052650e-002
      5.41353375e-002 3.00751887e-002 6.16541356e-002 3.15789469e-002
      4.36090231e-002 2.85714287e-002 1.65413544e-002 4.66165431e-002
      1.35338344e-002 1.80451125e-002 3.60902250e-002 2.10526325e-002
      1.35338344e-002 3.30827087e-002 3.00751887e-002 1.95488725e-002
      3.00751887e-002 2.40601506e-002 1.20300753e-002 3.75939868e-002
      7.96992481e-002 0. 3.15789469e-002 1.20300753e-002 7.51879718e-003
      1.35338344e-002 1.35338344e-002 4.51127812e-003 9.02255625e-003 0.
      6.01503765e-003 3.90977450e-002 3.60902250e-002 1.20300753e-002
      2.85714287e-002</_>
    <_>
      1.20300753e-002 2.25563906e-002 2.85714287e-002 4.21052650e-002
      5.41353375e-002 3.00751887e-002 6.16541356e-002 3.15789469e-002
      4.36090231e-002 2.85714287e-002 1.65413544e-002 4.66165431e-002
      1.35338344e-002 1.80451125e-002 3.60902250e-002 2.10526325e-002
      1.35338344e-002 3.30827087e-002 3.00751887e-002 1.95488725e-002
      3.00751887e-002 2.40601506e-002 1.20300753e-002 3.75939868e-002
      7.96992481e-002 0. 3.15789469e-002 1.20300753e-002 7.51879718e-003
      1.35338344e-002 1.35338344e-002 4.51127812e-003 9.02255625e-003 0.
      6.01503765e-003 3.90977450e-002 3.60902250e-002 1.20300753e-002
      2.85714287e-002</_>
    <_>
      1.20300753e-002 2.25563906e-002 2.85714287e-002 4.21052650e-002
      5.41353375e-002 3.00751887e-002 6.16541356e-002 3.15789469e-002
      4.36090231e-002 2.85714287e-002 1.65413544e-002 4.66165431e-002
      1.35338344e-002 1.80451125e-002 3.60902250e-002 2.10526325e-002
      1.35338344e-002 3.30827087e-002 3.00751887e-002 1.95488725e-002
      3.00751887e-002 2.40601506e-002 1.20300753e-002 3.75939868e-002
      7.96992481e-002 0. 3.15789469e-002 1.20300753e-002 7.51879718e-003
      1.35338344e-002 1.35338344e-002 4.51127812e-003 9.02255625e-003 0.
      6.01503765e-003 3.90977450e-002 3.60902250e-002 1.20300753e-002
      2.85714287e-002</_>
    <_>
      5.30035328e-003 3.35689038e-002 1.59010608e-002 6.00706711e-002
      3.00353356e-002 4.77031805e-002 6.00706711e-002 3.88692580e-002
      1.41342757e-002 0. 5.30035347e-002 2.82685515e-002 7.06713786e-003
      3.53356893e-003 3.18021215e-002 3.53356893e-003 2.29681972e-002
      3.53356893e-003 7.06713786e-003 3.18021215e-002 1.94346290e-002
      1.06007066e-002 2.29681972e-002 1.59010608e-002 8.48056525e-002
      1.23674916e-002 3.88692580e-002 3.35689038e-002 4.77031805e-002
      7.06713786e-003 8.83392245e-003 0. 1.41342757e-002 3.53356893e-003
      1.76678449e-002 3.53356893e-003 5.83038889e-002 3.53356893e-003
      9.89399329e-002</_>
    <_>
      5.30035328e-003 3.35689038e-002 1.59010608e-002 6.00706711e-002
      3.00353356e-002 4.77031805e-002 6.00706711e-002 3.88692580e-002
      1.41342757e-002 0. 5.30035347e-002 2.82685515e-002 7.06713786e-003
      3.53356893e-003 3.18021215e-002 3.53356893e-003 2.29681972e-002
      3.53356893e-003 7.06713786e-003 3.18021215e-002 1.94346290e-002
      1.06007066e-002 2.29681972e-002 1.59010608e-002 8.48056525e-002
      1.23674916e-002 3.88692580e-002 3.35689038e-002 4.77031805e-002
      7.06713786e-003 8.83392245e-003 0. 1.41342757e-002 3.53356893e-003
      1.76678449e-002 3.53356893e-003 5.83038889e-002 3.53356893e-003
      9.89399329e-002</_>
    <_>
      5.30035328e-003 3.35689038e-002 1.59010608e-002 6.00706711e-002
      3.00353356e-002 4.77031805e-002 6.00706711e-002 3.88692580e-002
      1.41342757e-002 0. 5.30035347e-002 2.82685515e-002 7.06713786e-003
      3.53356893e-003 3.18021215e-002 3.53356893e-003 2.29681972e-002
      3.53356893e-003 7.06713786e-003 3.18021215e-002 1.94346290e-002
      1.06007066e-002 2.29681972e-002 1.59010608e-002 8.48056525e-002
      1.23674916e-002 3.88692580e-002 3.35689038e-002 4.77031805e-002
      7.06713786e-003 8.83392245e-003 0. 1.41342757e-002 3.53356893e-003
      1.76678449e-002 3.53356893e-003 5.83038889e-002 3.53356893e-003
      9.89399329e-002</_>
    <_>
      5.30035328e-003 3.35689038e-002 1.59010608e-002 6.00706711e-002
      3.00353356e-002 4.77031805e-002 6.00706711e-002 3.88692580e-002
      1.41342757e-002 0. 5.30035347e-002 2.82685515e-002 7.06713786e-003
      3.53356893e-003 3.18021215e-002 3.53356893e-003 2.29681972e-002
      3.53356893e-003 7.06713786e-003 3.18021215e-002 1.94346290e-002
      1.06007066e-002 2.29681972e-002 1.59010608e-002 8.48056525e-002
      1.23674916e-002 3.88692580e-002 3.35689038e-002 4.77031805e-002
      7.06713786e-003 8.83392245e-003 0. 1.41342757e-002 3.53356893e-003
      1.76678449e-002 3.53356893e-003 5.83038889e-002 3.53356893e-003
      9.89399329e-002</_>
    <_>
      1.78173725e-002 4.89977747e-002 2.44988874e-002 8.01781788e-002
      8.24053511e-002 4.00890894e-002 1.55902011e-002 2.22717151e-002
      4.23162580e-002 2.22717156e-003 4.45434311e-003 2.89532300e-002
      1.11358576e-002 6.68151490e-003 1.33630298e-002 1.11358576e-002
      1.78173725e-002 2.44988874e-002 6.68151453e-002 1.33630298e-002
      4.67706025e-002 2.67260596e-002 2.44988874e-002 1.55902011e-002
      3.56347449e-002 6.68151490e-003 2.22717151e-002 4.00890894e-002
      4.45434311e-003 8.90868623e-003 2.67260596e-002 1.78173725e-002
      3.11804023e-002 1.11358576e-002 1.78173725e-002 4.23162580e-002
      1.33630298e-002 6.68151490e-003 2.67260596e-002</_>
    <_>
      1.78173725e-002 4.89977747e-002 2.44988874e-002 8.01781788e-002
      8.24053511e-002 4.00890894e-002 1.55902011e-002 2.22717151e-002
      4.23162580e-002 2.22717156e-003 4.45434311e-003 2.89532300e-002
      1.11358576e-002 6.68151490e-003 1.33630298e-002 1.11358576e-002
      1.78173725e-002 2.44988874e-002 6.68151453e-002 1.33630298e-002
      4.67706025e-002 2.67260596e-002 2.44988874e-002 1.55902011e-002
      3.56347449e-002 6.68151490e-003 2.22717151e-002 4.00890894e-002
      4.45434311e-003 8.90868623e-003 2.67260596e-002 1.78173725e-002
      3.11804023e-002 1.11358576e-002 1.78173725e-002 4.23162580e-002
      1.33630298e-002 6.68151490e-003 2.67260596e-002</_>
    <_>
      1.78173725e-002 4.89977747e-002 2.44988874e-002 8.01781788e-002
      8.24053511e-002 4.00890894e-002 1.55902011e-002 2.22717151e-002
      4.23162580e-002 2.22717156e-003 4.45434311e-003 2.89532300e-002
      1.11358576e-002 6.68151490e-003 1.33630298e-002 1.11358576e-002
      1.78173725e-002 2.44988874e-002 6.68151453e-002 1.33630298e-002
      4.67706025e-002 2.67260596e-002 2.44988874e-002 1.55902011e-002
      3.56347449e-002 6.68151490e-003 2.22717151e-002 4.00890894e-002
      4.45434311e-003 8.90868623e-003 2.67260596e-002 1.78173725e-002
      3.11804023e-002 1.11358576e-002 1.78173725e-002 4.23162580e-002
      1.33630298e-002 6.68151490e-003 2.67260596e-002</_>
    <_>
      1.78173725e-002 4.89977747e-002 2.44988874e-002 8.01781788e-002
      8.24053511e-002 4.00890894e-002 1.55902011e-002 2.22717151e-002
      4.23162580e-002 2.22717156e-003 4.45434311e-003 2.89532300e-002
      1.11358576e-002 6.68151490e-003 1.33630298e-002 1.11358576e-002
      1.78173725e-002 2.44988874e-002 6.68151453e-002 1.33630298e-002
      4.67706025e-002 2.67260596e-002 2.44988874e-002 1.55902011e-002
      3.56347449e-002 6.68151490e-003 2.22717151e-002 4.00890894e-002
      4.45434311e-003 8.90868623e-003 2.67260596e-002 1.78173725e-002
      3.11804023e-002 1.11358576e-002 1.78173725e-002 4.23162580e-002
      1.33630298e-002 6.68151490e-003 2.67260596e-002</_>
    <_>
      1.26315784e-002 3.36842090e-002 8.21052566e-002 2.10526306e-002
      3.15789469e-002 5.68421036e-002 1.47368414e-002 0. 2.94736829e-002
      1.05263151e-001 1.47368414e-002 6.31578919e-003 4.21052612e-003
      1.05263153e-002 4.21052612e-003 1.05263153e-002 1.47368414e-002
      3.15789469e-002 3.78947333e-002 1.68421045e-002 2.10526306e-002
      1.26315784e-002 8.42105225e-003 0. 4.21052612e-003 4.21052612e-002
      1.47368414e-002 6.31578919e-003 8.42105225e-003 6.31578919e-003
      6.31578937e-002 3.36842090e-002 7.15789422e-002 5.68421036e-002
      1.68421045e-002 2.73684189e-002 1.05263153e-002 5.47368377e-002
      2.10526306e-003</_>
    <_>
      1.26315784e-002 3.36842090e-002 8.21052566e-002 2.10526306e-002
      3.15789469e-002 5.68421036e-002 1.47368414e-002 0. 2.94736829e-002
      1.05263151e-001 1.47368414e-002 6.31578919e-003 4.21052612e-003
      1.05263153e-002 4.21052612e-003 1.05263153e-002 1.47368414e-002
      3.15789469e-002 3.78947333e-002 1.68421045e-002 2.10526306e-002
      1.26315784e-002 8.42105225e-003 0. 4.21052612e-003 4.21052612e-002
      1.47368414e-002 6.31578919e-003 8.42105225e-003 6.31578919e-003
      6.31578937e-002 3.36842090e-002 7.15789422e-002 5.68421036e-002
      1.68421045e-002 2.73684189e-002 1.05263153e-002 5.47368377e-002
      2.10526306e-003</_>
    <_>
      1.26315784e-002 3.36842090e-002 8.21052566e-002 2.10526306e-002
      3.15789469e-002 5.68421036e-002 1.47368414e-002 0. 2.94736829e-002
      1.05263151e-001 1.47368414e-002 6.31578919e-003 4.21052612e-003
      1.05263153e-002 4.21052612e-003 1.05263153e-002 1.47368414e-002
      3.15789469e-002 3.78947333e-002 1.68421045e-002 2.10526306e-002
      1.26315784e-002 8.42105225e-003 0. 4.21052612e-003 4.21052612e-002
      1.47368414e-002 6.31578919e-003 8.42105225e-003 6.31578919e-003
      6.31578937e-002 3.36842090e-002 7.15789422e-002 5.68421036e-002
      1.68421045e-002 2.73684189e-002 1.05263153e-002 5.47368377e-002
      2.10526306e-003</_>
    <_>
      1.26315784e-002 3.36842090e-002 8.21052566e-002 2.10526306e-002
      3.15789469e-002 5.68421036e-002 1.47368414e-002 0. 2.94736829e-002
      1.05263151e-001 1.47368414e-002 6.31578919e-003 4.21052612e-003
      1.05263153e-002 4.21052612e-003 1.05263153e-002 1.47368414e-002
      3.15789469e-002 3.78947333e-002 1.68421045e-002 2.10526306e-002
      1.26315784e-002 8.42105225e-003 0. 4.21052612e-003 4.21052612e-002
      1.47368414e-002 6.31578919e-003 8.42105225e-003 6.31578919e-003
      6.31578937e-002 3.36842090e-002 7.15789422e-002 5.68421036e-002
      1.68421045e-002 2.73684189e-002 1.05263153e-002 5.47368377e-002
      2.10526306e-003</_>
    <_>
      4.75770943e-002 3.34801786e-002 2.46696044e-002 6.07929528e-002
      2.46696044e-002 5.28634377e-002 1.85022037e-002 8.81057326e-003
      4.05286364e-002 4.05286364e-002 2.29074899e-002 1.23348022e-002
      5.28634386e-003 2.90748905e-002 2.55506616e-002 4.14096937e-002
      1.49779739e-002 3.08370050e-002 2.90748905e-002 1.76211465e-002
      7.92951602e-003 2.55506616e-002 2.29074899e-002 6.16740109e-003
      7.92951602e-003 3.25991213e-002 2.11453754e-002 2.46696044e-002
